{"learner":{"attributes":{"best_iteration":"42","best_score":"0.05378618563199756","scikit_learn":"{\"_estimator_type\": \"regressor\"}"},"feature_names":[],"feature_types":[],"gradient_booster":{"model":{"gbtree_model_param":{"num_parallel_tree":"1","num_trees":"53"},"iteration_indptr":[0,1,2,3,4,5,6,7,8,9,10,11,12,13,14,15,16,17,18,19,20,21,22,23,24,25,26,27,28,29,30,31,32,33,34,35,36,37,38,39,40,41,42,43,44,45,46,47,48,49,50,51,52,53],"tree_info":[0,0,0,0,0,0,0,0,0,0,0,0,0,0,0,0,0,0,0,0,0,0,0,0,0,0,0,0,0,0,0,0,0,0,0,0,0,0,0,0,0,0,0,0,0,0,0,0,0,0,0,0,0],"trees":[{"base_weights":[1.240376E-8,-1.22895025E-1,2.7301833E-1,-1.9149858E-1,-1.547353E-3,1.4227544E-1,4.134228E-1,-2.2249727E-1,-1.3238789E-1,-5.735329E-2,2.9901365E-2,1.2618455E-1,1.906752E-1,3.3987552E-1,4.8576778E-1,-1.18490355E-2,-9.72194E-3,-9.818897E-4,-6.6754865E-3,-7.123865E-2,-2.113057E-2,1.6323775E-2,5.1624577E-2,1.3932587E-1,6.460609E-2,1.0449263E-2,4.6973987E-3,1.7421914E-2,8.463964E-3,2.4574835E-2,6.8449737E-3,-3.8234105E-3,-5.796265E-4,1.407932E-4,-1.8703867E-3,1.3010333E-3,2.9784103E-5,6.741867E-4,2.8210215E-3,7.085447E-3,2.4994249E-3,3.4702823E-3,5.5297463E-5],"categories":[],"categories_nodes":[],"categories_segments":[],"categories_sizes":[],"default_left":[0,0,0,0,0,0,0,0,0,0,0,0,0,0,0,0,0,0,0,0,0,0,0,0,0,0,0,0,0,0,0,0,0,0,0,0,0,0,0,0,0,0,0],"id":0,"left_children":[1,3,5,7,9,11,13,15,17,19,21,23,25,27,29,-1,-1,-1,-1,31,33,35,37,39,41,-1,-1,-1,-1,-1,-1,-1,-1,-1,-1,-1,-1,-1,-1,-1,-1,-1,-1],"loss_changes":[1.8051296E1,3.0882344E0,3.0067806E0,4.048128E-1,2.3864333E-1,4.447353E-2,2.6056194E-1,1.6504288E-2,8.002996E-3,2.3140013E-2,2.4817847E-2,4.6835184E-2,1.57879E-2,3.829956E-3,8.662224E-3,0E0,0E0,0E0,0E0,1.0030836E-2,5.9520355E-3,8.372748E-3,5.2755177E-3,4.8384666E-3,4.19005E-3,0E0,0E0,0E0,0E0,0E0,0E0,0E0,0E0,0E0,0E0,0E0,0E0,0E0,0E0,0E0,0E0,0E0,0E0],"parents":[2147483647,0,0,1,1,2,2,3,3,4,4,5,5,6,6,7,7,8,8,9,9,10,10,11,11,12,12,13,13,14,14,19,19,20,20,21,21,22,22,23,23,24,24],"right_children":[2,4,6,8,10,12,14,16,18,20,22,24,26,28,30,-1,-1,-1,-1,32,34,36,38,40,42,-1,-1,-1,-1,-1,-1,-1,-1,-1,-1,-1,-1,-1,-1,-1,-1,-1,-1],"split_conditions":[4.2125997E-1,2.496688E-1,5.8069533E-1,1.7069146E-1,3.243833E-1,7.1079993E-1,7.6056314E-1,1.3175844E-1,1.5914114E-2,3.0198336E-1,3.8550887E-1,5.487405E-1,2.725622E-1,7.915903E-1,4.4281596E-1,-1.18490355E-2,-9.72194E-3,-9.818897E-4,-6.6754865E-3,7.578262E-2,5.1426373E-2,2.74252E-1,6.691168E-2,8.538585E-1,4.244009E-1,1.0449263E-2,4.6973987E-3,1.7421914E-2,8.463964E-3,2.4574835E-2,6.8449737E-3,-3.8234105E-3,-5.796265E-4,1.407932E-4,-1.8703867E-3,1.3010333E-3,2.9784103E-5,6.741867E-4,2.8210215E-3,7.085447E-3,2.4994249E-3,3.4702823E-3,5.5297463E-5],"split_indices":[652,652,652,652,650,332,652,652,0,652,652,184,383,5,5,0,0,0,0,642,395,64,554,90,18,0,0,0,0,0,0,0,0,0,0,0,0,0,0,0,0,0,0],"split_type":[0,0,0,0,0,0,0,0,0,0,0,0,0,0,0,0,0,0,0,0,0,0,0,0,0,0,0,0,0,0,0,0,0,0,0,0,0,0,0,0,0,0,0],"sum_hessian":[5.36E2,3.7E2,1.66E2,2.36E2,1.34E2,8.7E1,7.9E1,1.53E2,8.3E1,4.8E1,8.6E1,6.8E1,1.9E1,4.2E1,3.7E1,9.6E1,5.7E1,1E0,8.2E1,3.4E1,1.4E1,5.4E1,3.2E1,5.5E1,1.3E1,1.5E1,4E0,3.9E1,3E0,3.6E1,1E0,3.1E1,3E0,6E0,8E0,3.3E1,2.1E1,4E0,2.8E1,5.3E1,2E0,1.2E1,1E0],"tree_param":{"num_deleted":"0","num_feature":"660","num_nodes":"43","size_leaf_vector":"1"}},{"base_weights":[1.02485996E-4,-1.1683258E-1,2.5987977E-1,-1.8282014E-1,-2.789442E-3,1.3548277E-1,3.93468E-1,-2.1263698E-1,-1.2868822E-1,-5.6045644E-2,2.8461773E-2,1.2006533E-1,1.8189877E-1,3.2348377E-1,4.6230623E-1,-1.1262692E-2,-9.301784E-3,-9.573423E-4,-1.2975167E-1,-6.906723E-2,-2.0189341E-2,1.5531796E-2,4.9149256E-2,1.3253073E-1,6.1627623E-2,9.959455E-3,4.5095026E-3,1.6572597E-2,8.1465645E-3,2.3379302E-2,6.6738497E-3,-7.410628E-3,-5.8204546E-3,-3.6924358E-3,-5.5789057E-4,1.3475951E-4,-1.787258E-3,1.0824924E-3,-4.0976904E-4,2.7965365E-3,1.0482904E-3,6.737736E-3,2.4161106E-3,3.310116E-3,5.391538E-5],"categories":[],"categories_nodes":[],"categories_segments":[],"categories_sizes":[],"default_left":[0,0,0,0,0,0,0,0,0,0,0,0,0,0,0,0,0,0,0,0,0,0,0,0,0,0,0,0,0,0,0,0,0,0,0,0,0,0,0,0,0,0,0,0,0],"id":1,"left_children":[1,3,5,7,9,11,13,15,17,19,21,23,25,27,29,-1,-1,-1,31,33,35,37,39,41,43,-1,-1,-1,-1,-1,-1,-1,-1,-1,-1,-1,-1,-1,-1,-1,-1,-1,-1,-1,-1],"loss_changes":[1.6342852E1,2.7914243E0,2.7218924E0,3.5193634E-1,2.2960712E-1,4.1134357E-2,2.3585987E-1,8.438587E-3,7.5341463E-3,2.2417799E-2,2.2508137E-2,4.2095542E-2,1.3748586E-2,1.0061264E-3,3.5619736E-3,0E0,0E0,0E0,3.6834478E-3,9.421036E-3,5.436155E-3,8.1614535E-3,5.134508E-3,3.975868E-3,3.8065352E-3,0E0,0E0,0E0,0E0,0E0,0E0,0E0,0E0,0E0,0E0,0E0,0E0,0E0,0E0,0E0,0E0,0E0,0E0,0E0,0E0],"parents":[2147483647,0,0,1,1,2,2,3,3,4,4,5,5,6,6,7,7,8,8,9,9,10,10,11,11,12,12,13,13,14,14,18,18,19,19,20,20,21,21,22,22,23,23,24,24],"right_children":[2,4,6,8,10,12,14,16,18,20,22,24,26,28,30,-1,-1,-1,32,34,36,38,40,42,44,-1,-1,-1,-1,-1,-1,-1,-1,-1,-1,-1,-1,-1,-1,-1,-1,-1,-1,-1,-1],"split_conditions":[4.2125997E-1,2.4519044E-1,5.8069533E-1,1.657607E-1,3.243833E-1,7.1079993E-1,7.6056314E-1,1.3175844E-1,1.5914114E-2,3.0198336E-1,3.8550887E-1,5.487405E-1,2.725622E-1,7.915903E-1,4.4281596E-1,-1.1262692E-2,-9.301784E-3,-9.573423E-4,1.9253843E-1,7.578262E-2,5.1426373E-2,6.7891705E-1,2.7824286E-1,8.538585E-1,4.244009E-1,9.959455E-3,4.5095026E-3,1.6572597E-2,8.1465645E-3,2.3379302E-2,6.6738497E-3,-7.410628E-3,-5.8204546E-3,-3.6924358E-3,-5.5789057E-4,1.3475951E-4,-1.787258E-3,1.0824924E-3,-4.0976904E-4,2.7965365E-3,1.0482904E-3,6.737736E-3,2.4161106E-3,3.310116E-3,5.391538E-5],"split_indices":[652,652,652,652,650,332,652,652,0,652,652,184,383,5,5,0,0,0,650,642,395,370,273,90,18,0,0,0,0,0,0,0,0,0,0,0,0,0,0,0,0,0,0,0,0],"split_type":[0,0,0,0,0,0,0,0,0,0,0,0,0,0,0,0,0,0,0,0,0,0,0,0,0,0,0,0,0,0,0,0,0,0,0,0,0,0,0,0,0,0,0,0,0],"sum_hessian":[5.36E2,3.7E2,1.66E2,2.34E2,1.36E2,8.7E1,7.9E1,1.49E2,8.5E1,5E1,8.6E1,6.8E1,1.9E1,4.2E1,3.7E1,9.6E1,5.3E1,1E0,8.4E1,3.6E1,1.4E1,5.4E1,3.2E1,5.5E1,1.3E1,1.5E1,4E0,3.9E1,3E0,3.6E1,1E0,3.1E1,5.3E1,3.3E1,3E0,6E0,8E0,4.3E1,1.1E1,2.5E1,7E0,5.3E1,2E0,1.2E1,1E0],"tree_param":{"num_deleted":"0","num_feature":"660","num_nodes":"45","size_leaf_vector":"1"}},{"base_weights":[1.8231712E-4,-1.1108836E-1,2.4737535E-1,-1.7382702E-1,-2.6600736E-3,1.290153E-1,3.7447923E-1,-2.0351158E-1,-1.2461728E-1,-5.3359095E-2,2.7090618E-2,1.14243485E-1,1.7352729E-1,1.5394221E-2,2.1999089E-2,-1.0705362E-2,-8.919159E-3,-7.196256E-3,-1.093626E-1,-6.572873E-2,-1.929005E-2,1.4767449E-2,4.6808306E-2,1.2606765E-1,5.8786534E-2,9.492605E-3,4.329122E-3,-9.3340874E-4,-5.534821E-3,-3.5132435E-3,-5.3696934E-4,1.2898381E-4,-1.7078249E-3,1.196336E-3,-2.9516493E-6,1.6706799E-3,3.130008E-3,1.4030375E-3,6.3669705E-3,3.1573416E-3,5.256757E-5],"categories":[],"categories_nodes":[],"categories_segments":[],"categories_sizes":[],"default_left":[0,0,0,0,0,0,0,0,0,0,0,0,0,0,0,0,0,0,0,0,0,0,0,0,0,0,0,0,0,0,0,0,0,0,0,0,0,0,0,0,0],"id":2,"left_children":[1,3,5,7,9,11,13,15,17,19,21,23,25,-1,-1,-1,-1,-1,27,29,31,33,35,37,39,-1,-1,-1,-1,-1,-1,-1,-1,-1,-1,-1,-1,-1,-1,-1,-1],"loss_changes":[1.4797846E1,2.5233192E0,2.464038E0,3.1791973E-1,2.0808688E-1,3.8037658E-2,2.1350765E-1,4.1389465E-4,1.1062741E-2,2.0224601E-2,2.0448409E-2,3.7834406E-2,1.1949301E-2,0E0,0E0,0E0,0E0,0E0,4.5868754E-3,8.474648E-3,4.9649896E-3,7.4703973E-3,4.8886985E-3,3.4066439E-3,3.4580044E-3,0E0,0E0,0E0,0E0,0E0,0E0,0E0,0E0,0E0,0E0,0E0,0E0,0E0,0E0,0E0,0E0],"parents":[2147483647,0,0,1,1,2,2,3,3,4,4,5,5,6,6,7,7,8,8,9,9,10,10,11,11,12,12,18,18,19,19,20,20,21,21,22,22,23,23,24,24],"right_children":[2,4,6,8,10,12,14,16,18,20,22,24,26,-1,-1,-1,-1,-1,28,30,32,34,36,38,40,-1,-1,-1,-1,-1,-1,-1,-1,-1,-1,-1,-1,-1,-1,-1,-1],"split_conditions":[4.2125997E-1,2.4519044E-1,5.8069533E-1,1.6122364E-1,3.243833E-1,7.1079993E-1,7.6056314E-1,1.3175844E-1,1.9253843E-1,3.0198336E-1,3.8550887E-1,5.487405E-1,2.725622E-1,1.5394221E-2,2.1999089E-2,-1.0705362E-2,-8.919159E-3,-7.196256E-3,1.5914114E-2,7.578262E-2,5.1426373E-2,2.74252E-1,5.1290447E-1,2.171057E-1,4.244009E-1,9.492605E-3,4.329122E-3,-9.3340874E-4,-5.534821E-3,-3.5132435E-3,-5.3696934E-4,1.2898381E-4,-1.7078249E-3,1.196336E-3,-2.9516493E-6,1.6706799E-3,3.130008E-3,1.4030375E-3,6.3669705E-3,3.1573416E-3,5.256757E-5],"split_indices":[652,652,652,652,650,332,652,652,650,652,652,184,383,0,0,0,0,0,0,642,395,64,371,18,18,0,0,0,0,0,0,0,0,0,0,0,0,0,0,0,0],"split_type":[0,0,0,0,0,0,0,0,0,0,0,0,0,0,0,0,0,0,0,0,0,0,0,0,0,0,0,0,0,0,0,0,0,0,0,0,0,0,0,0,0],"sum_hessian":[5.36E2,3.7E2,1.66E2,2.34E2,1.36E2,8.7E1,7.9E1,1.44E2,9E1,5E1,8.6E1,6.8E1,1.9E1,4.2E1,3.7E1,9.6E1,4.8E1,3.6E1,5.4E1,3.6E1,1.4E1,5.4E1,3.2E1,5.5E1,1.3E1,1.5E1,4E0,1E0,5.3E1,3.3E1,3E0,6E0,8E0,3.3E1,2.1E1,1.9E1,1.3E1,1E0,5.4E1,1.2E1,1E0],"tree_param":{"num_deleted":"0","num_feature":"660","num_nodes":"41","size_leaf_vector":"1"}},{"base_weights":[2.2770831E-4,-1.0562269E-1,2.3537903E-1,-1.645914E-1,-1.3174493E-3,1.22846365E-1,3.562227E-1,-1.9122382E-1,-1.1380589E-1,-4.9446724E-2,2.5804985E-2,1.0869044E-1,1.65542E-1,2.9284823E-1,4.1856164E-1,-1.0175613E-2,-8.368774E-3,-9.100735E-4,-1.1473845E-1,-6.1326496E-2,-1.8430805E-2,1.4050781E-2,4.4613358E-2,1.1990303E-1,5.607648E-2,9.047639E-3,4.1559576E-3,1.50142135E-2,7.2637857E-3,2.1171704E-2,5.957026E-3,-6.220739E-3,-4.856696E-3,-3.289189E-3,-5.1683263E-4,1.2345592E-4,-1.6319217E-3,1.0077133E-3,-3.6092493E-4,6.5836037E-4,2.4879242E-3,6.5831686E-3,4.7871633E-3,3.0116176E-3,5.125329E-5],"categories":[],"categories_nodes":[],"categories_segments":[],"categories_sizes":[],"default_left":[0,0,0,0,0,0,0,0,0,0,0,0,0,0,0,0,0,0,0,0,0,0,0,0,0,0,0,0,0,0,0,0,0,0,0,0,0,0,0,0,0,0,0,0,0],"id":3,"left_children":[1,3,5,7,9,11,13,15,17,19,21,23,25,27,29,-1,-1,-1,31,33,35,37,39,41,43,-1,-1,-1,-1,-1,-1,-1,-1,-1,-1,-1,-1,-1,-1,-1,-1,-1,-1,-1,-1],"loss_changes":[1.3391253E1,2.2817092E0,2.2272482E0,2.987895E-1,1.7750269E-1,3.519416E-2,1.9348145E-1,1.1068344E-2,5.400777E-3,1.6924359E-2,1.8606883E-2,3.398198E-2,1.036334E-2,3.5624504E-3,4.9905777E-3,0E0,0E0,0E0,2.0538568E-3,7.2746575E-3,4.534663E-3,7.285404E-3,4.684031E-3,3.3052564E-3,3.141269E-3,0E0,0E0,0E0,0E0,0E0,0E0,0E0,0E0,0E0,0E0,0E0,0E0,0E0,0E0,0E0,0E0,0E0,0E0,0E0,0E0],"parents":[2147483647,0,0,1,1,2,2,3,3,4,4,5,5,6,6,7,7,8,8,9,9,10,10,11,11,12,12,13,13,14,14,18,18,19,19,20,20,21,21,22,22,23,23,24,24],"right_children":[2,4,6,8,10,12,14,16,18,20,22,24,26,28,30,-1,-1,-1,32,34,36,38,40,42,44,-1,-1,-1,-1,-1,-1,-1,-1,-1,-1,-1,-1,-1,-1,-1,-1,-1,-1,-1,-1],"split_conditions":[4.2125997E-1,2.496688E-1,5.8069533E-1,1.7069146E-1,3.243833E-1,7.1079993E-1,7.6056314E-1,1.3175844E-1,1.5914114E-2,3.0198336E-1,3.8550887E-1,5.487405E-1,2.725622E-1,7.915903E-1,4.4281596E-1,-1.0175613E-2,-8.368774E-3,-9.100735E-4,2.1771292E-1,7.578262E-2,5.1426373E-2,6.6818726E-1,6.929415E-2,1.218711E-1,4.244009E-1,9.047639E-3,4.1559576E-3,1.50142135E-2,7.2637857E-3,2.1171704E-2,5.957026E-3,-6.220739E-3,-4.856696E-3,-3.289189E-3,-5.1683263E-4,1.2345592E-4,-1.6319217E-3,1.0077133E-3,-3.6092493E-4,6.5836037E-4,2.4879242E-3,6.5831686E-3,4.7871633E-3,3.0116176E-3,5.125329E-5],"split_indices":[652,652,652,652,650,332,652,652,0,652,652,184,383,5,5,0,0,0,652,642,395,370,554,136,18,0,0,0,0,0,0,0,0,0,0,0,0,0,0,0,0,0,0,0,0],"split_type":[0,0,0,0,0,0,0,0,0,0,0,0,0,0,0,0,0,0,0,0,0,0,0,0,0,0,0,0,0,0,0,0,0,0,0,0,0,0,0,0,0,0,0,0,0],"sum_hessian":[5.36E2,3.7E2,1.66E2,2.36E2,1.34E2,8.7E1,7.9E1,1.53E2,8.3E1,4.8E1,8.6E1,6.8E1,1.9E1,4.2E1,3.7E1,9.6E1,5.7E1,1E0,8.2E1,3.4E1,1.4E1,5.4E1,3.2E1,5.5E1,1.3E1,1.5E1,4E0,3.9E1,3E0,3.6E1,1E0,4.9E1,3.3E1,3.1E1,3E0,6E0,8E0,4.2E1,1.2E1,5E0,2.7E1,3.4E1,2.1E1,1.2E1,1E0],"tree_param":{"num_deleted":"0","num_feature":"660","num_nodes":"45","size_leaf_vector":"1"}},{"base_weights":[3.001036E-4,-1.0042795E-1,2.2407141E-1,-1.5714899E-1,-2.3996944E-3,1.1701811E-1,3.3902913E-1,-1.7994784E-1,-1.0511433E-1,-4.8339874E-2,2.455834E-2,1.03465095E-1,1.579251E-1,2.7872393E-1,3.9834744E-1,-9.645593E-3,-7.825687E-3,-8.873217E-4,-1.0606805E-1,-5.949152E-2,-1.7609827E-2,1.240728E-2,4.1427694E-2,1.14110924E-1,5.3491436E-2,8.789289E-3,4.347626E-3,1.4282271E-2,6.991394E-3,8.441896E-3,2.0320402E-2,-5.337558E-3,-1.4220945E-3,-3.178515E-3,-4.9745146E-4,1.1816557E-4,-1.5593921E-3,-3.1743715E-5,1.2253432E-3,2.3770097E-3,-2.9889285E-4,5.8031683E-3,2.046501E-3,2.8726202E-3,4.997179E-5],"categories":[],"categories_nodes":[],"categories_segments":[],"categories_sizes":[],"default_left":[0,0,0,0,0,0,0,0,0,0,0,0,0,0,0,0,0,0,0,0,0,0,0,0,0,0,0,0,0,0,0,0,0,0,0,0,0,0,0,0,0,0,0,0,0],"id":4,"left_children":[1,3,5,7,9,11,13,15,17,19,21,23,25,27,29,-1,-1,-1,31,33,35,37,39,41,43,-1,-1,-1,-1,-1,-1,-1,-1,-1,-1,-1,-1,-1,-1,-1,-1,-1,-1,-1,-1],"loss_changes":[1.212651E1,2.0624807E0,2.0155296E0,2.598729E-1,1.7085575E-1,3.244853E-2,1.7514706E-1,1.9021988E-2,4.2836666E-3,1.642958E-2,1.73193E-2,3.060478E-2,1.0067344E-2,1.3976097E-3,1.6827583E-3,0E0,0E0,0E0,8.3482265E-4,6.8442374E-3,4.14164E-3,8.221398E-3,1.0715779E-2,3.250897E-3,2.853442E-3,0E0,0E0,0E0,0E0,0E0,0E0,0E0,0E0,0E0,0E0,0E0,0E0,0E0,0E0,0E0,0E0,0E0,0E0,0E0,0E0],"parents":[2147483647,0,0,1,1,2,2,3,3,4,4,5,5,6,6,7,7,8,8,9,9,10,10,11,11,12,12,13,13,14,14,18,18,19,19,20,20,21,21,22,22,23,23,24,24],"right_children":[2,4,6,8,10,12,14,16,18,20,22,24,26,28,30,-1,-1,-1,32,34,36,38,40,42,44,-1,-1,-1,-1,-1,-1,-1,-1,-1,-1,-1,-1,-1,-1,-1,-1,-1,-1,-1,-1],"split_conditions":[4.2125997E-1,2.4519044E-1,5.8069533E-1,1.8102261E-1,3.243833E-1,7.1079993E-1,7.6056314E-1,1.3463065E-1,1.5914114E-2,3.0198336E-1,3.5959935E-1,5.487405E-1,8.062676E-2,7.915903E-1,4.8412058E-1,-9.645593E-3,-7.825687E-3,-8.873217E-4,3.5292593E-1,7.578262E-2,5.1426373E-2,2.5661296E-1,3.5442275E-1,8.538585E-1,4.244009E-1,8.789289E-3,4.347626E-3,1.4282271E-2,6.991394E-3,8.441896E-3,2.0320402E-2,-5.337558E-3,-1.4220945E-3,-3.178515E-3,-4.9745146E-4,1.1816557E-4,-1.5593921E-3,-3.1743715E-5,1.2253432E-3,2.3770097E-3,-2.9889285E-4,5.8031683E-3,2.046501E-3,2.8726202E-3,4.997179E-5],"split_indices":[652,652,652,652,650,332,652,652,0,652,138,184,428,5,595,0,0,0,119,642,395,449,290,90,18,0,0,0,0,0,0,0,0,0,0,0,0,0,0,0,0,0,0,0,0],"split_type":[0,0,0,0,0,0,0,0,0,0,0,0,0,0,0,0,0,0,0,0,0,0,0,0,0,0,0,0,0,0,0,0,0,0,0,0,0,0,0,0,0,0,0,0,0],"sum_hessian":[5.36E2,3.7E2,1.66E2,2.34E2,1.36E2,8.7E1,7.9E1,1.61E2,7.3E1,5E1,8.6E1,6.8E1,1.9E1,4.2E1,3.7E1,9.9E1,6.2E1,1E0,7.2E1,3.6E1,1.4E1,5.1E1,3.5E1,5.5E1,1.3E1,1.4E1,5E0,3.9E1,3E0,2E0,3.5E1,7.1E1,1E0,3.3E1,3E0,6E0,8E0,2.5E1,2.6E1,3.1E1,4E0,5.3E1,2E0,1.2E1,1E0],"tree_param":{"num_deleted":"0","num_feature":"660","num_nodes":"45","size_leaf_vector":"1"}},{"base_weights":[3.7258395E-4,-9.5479235E-2,2.1331063E-1,-1.4877868E-1,-1.2018419E-3,1.114389E-1,3.2270315E-1,-1.7494978E-1,-1.0637452E-1,-4.4801366E-2,2.3368025E-2,1.0606031E-1,1.1423937E-2,2.7005532E-1,3.8598976E-1,-9.3628E-3,-7.891415E-3,-6.0545313E-3,-9.068881E-2,-5.5511024E-2,-1.682541E-2,1.2570544E-2,4.0655706E-2,6.1663024E-2,1.161051E-1,2.7623323E-1,6.729217E-3,8.1605E-3,1.974066E-2,-1.9078117E-3,-4.664268E-3,-2.9759095E-3,-4.7879666E-4,1.13101305E-4,-1.4900853E-3,2.5869177E-3,4.657947E-4,1.4154732E-3,2.7694611E-3,4.8722326E-5,3.2587813E-3,4.954045E-3,6.5837256E-3,9.6580135E-3,1.46038E-2],"categories":[],"categories_nodes":[],"categories_segments":[],"categories_sizes":[],"default_left":[0,0,0,0,0,0,0,0,0,0,0,0,0,0,0,0,0,0,0,0,0,0,0,0,0,0,0,0,0,0,0,0,0,0,0,0,0,0,0,0,0,0,0,0,0],"id":5,"left_children":[1,3,5,7,9,11,13,15,17,19,21,23,-1,25,27,-1,-1,-1,29,31,33,35,37,39,41,43,-1,-1,-1,-1,-1,-1,-1,-1,-1,-1,-1,-1,-1,-1,-1,-1,-1,-1,-1],"loss_changes":[1.0980804E1,1.8640714E0,1.8250871E0,2.4440336E-1,1.4566357E-1,3.116417E-2,1.6231346E-1,9.975433E-4,1.0486007E-2,1.3747036E-2,1.5728656E-2,3.1193316E-2,0E0,2.1591187E-3,2.3961067E-3,0E0,0E0,0E0,3.1243265E-3,5.8724955E-3,3.7826751E-3,6.5292725E-3,4.4347756E-3,3.773637E-3,5.2425265E-3,1.4910698E-3,0E0,0E0,0E0,0E0,0E0,0E0,0E0,0E0,0E0,0E0,0E0,0E0,0E0,0E0,0E0,0E0,0E0,0E0,0E0],"parents":[2147483647,0,0,1,1,2,2,3,3,4,4,5,5,6,6,7,7,8,8,9,9,10,10,11,11,13,13,14,14,18,18,19,19,20,20,21,21,22,22,23,23,24,24,25,25],"right_children":[2,4,6,8,10,12,14,16,18,20,22,24,-1,26,28,-1,-1,-1,30,32,34,36,38,40,42,44,-1,-1,-1,-1,-1,-1,-1,-1,-1,-1,-1,-1,-1,-1,-1,-1,-1,-1,-1],"split_conditions":[4.2125997E-1,2.496688E-1,5.8069533E-1,1.6122364E-1,3.243833E-1,8.798107E-1,7.7485347E-1,1.1694385E-1,1.9580054E-1,3.0198336E-1,3.8550887E-1,4.4497868E-1,1.1423937E-2,7.915903E-1,4.8412058E-1,-9.3628E-3,-7.891415E-3,-6.0545313E-3,1.7792441E-1,7.578262E-2,5.1426373E-2,1.8017817E-2,5.1290447E-1,3.5953518E-2,4.688661E-1,1.4718552E-1,6.729217E-3,8.1605E-3,1.974066E-2,-1.9078117E-3,-4.664268E-3,-2.9759095E-3,-4.7879666E-4,1.13101305E-4,-1.4900853E-3,2.5869177E-3,4.657947E-4,1.4154732E-3,2.7694611E-3,4.8722326E-5,3.2587813E-3,4.954045E-3,6.5837256E-3,9.6580135E-3,1.46038E-2],"split_indices":[652,652,652,652,650,225,652,652,650,652,652,652,0,5,595,0,0,0,585,642,395,147,371,32,228,580,0,0,0,0,0,0,0,0,0,0,0,0,0,0,0,0,0,0,0],"split_type":[0,0,0,0,0,0,0,0,0,0,0,0,0,0,0,0,0,0,0,0,0,0,0,0,0,0,0,0,0,0,0,0,0,0,0,0,0,0,0,0,0,0,0,0,0],"sum_hessian":[5.36E2,3.7E2,1.66E2,2.36E2,1.34E2,8.7E1,7.9E1,1.44E2,9.2E1,4.8E1,8.6E1,8.5E1,2E0,4.6E1,3.3E1,7.8E1,6.6E1,4.4E1,4.8E1,3.4E1,1.4E1,5.4E1,3.2E1,1.7E1,6.8E1,4.3E1,3E0,2E0,3.1E1,3E0,4.5E1,3.1E1,3E0,6E0,8E0,3E0,5.1E1,1.9E1,1.3E1,1E0,1.6E1,3.6E1,3.2E1,9E0,3.4E1],"tree_param":{"num_deleted":"0","num_feature":"660","num_nodes":"45","size_leaf_vector":"1"}},{"base_weights":[4.6137816E-4,-9.0779334E-2,2.0315504E-1,-1.4206304E-1,-2.1483079E-3,1.0616547E-1,3.0730414E-1,-1.6269994E-1,-9.49652E-2,-4.3782823E-2,2.2282826E-2,1.00929916E-1,1.104314E-2,2.5721195E-1,3.6751086E-1,-8.745109E-3,-7.1150586E-3,-8.174427E-4,-9.581818E-2,-5.3832024E-2,-1.6075937E-2,1.1298901E-2,3.827897E-2,5.8763612E-2,1.1046707E-1,2.6297298E-1,6.4768717E-3,1.8605528E-2,5.3930404E-3,-4.8219757E-3,-1.2770512E-3,-2.874879E-3,-4.6084152E-4,-2.3584515E-4,-1.8925313E-3,-2.053541E-4,1.0014462E-3,2.2132585E-3,-3.245622E-4,4.7504156E-5,3.105426E-3,4.7130375E-3,6.264515E-3,9.223403E-3,1.3894473E-2],"categories":[],"categories_nodes":[],"categories_segments":[],"categories_sizes":[],"default_left":[0,0,0,0,0,0,0,0,0,0,0,0,0,0,0,0,0,0,0,0,0,0,0,0,0,0,0,0,0,0,0,0,0,0,0,0,0,0,0,0,0,0,0,0,0],"id":6,"left_children":[1,3,5,7,9,11,13,15,17,19,21,23,-1,25,27,-1,-1,-1,29,31,33,35,37,39,41,43,-1,-1,-1,-1,-1,-1,-1,-1,-1,-1,-1,-1,-1,-1,-1,-1,-1,-1,-1],"loss_changes":[9.949674E0,1.6860111E0,1.6543055E0,2.1295834E-1,1.4032905E-1,3.0552685E-2,1.4674282E-1,1.5434742E-2,3.3957958E-3,1.3334639E-2,1.4853429E-2,2.809316E-2,0E0,5.054474E-4,4.7016144E-4,0E0,0E0,0E0,7.2443485E-4,5.5209994E-3,3.531553E-3,7.210473E-3,9.667452E-3,3.4218505E-3,4.7659874E-3,2.629757E-4,0E0,0E0,0E0,0E0,0E0,0E0,0E0,0E0,0E0,0E0,0E0,0E0,0E0,0E0,0E0,0E0,0E0,0E0,0E0],"parents":[2147483647,0,0,1,1,2,2,3,3,4,4,5,5,6,6,7,7,8,8,9,9,10,10,11,11,13,13,14,14,18,18,19,19,20,20,21,21,22,22,23,23,24,24,25,25],"right_children":[2,4,6,8,10,12,14,16,18,20,22,24,-1,26,28,-1,-1,-1,30,32,34,36,38,40,42,44,-1,-1,-1,-1,-1,-1,-1,-1,-1,-1,-1,-1,-1,-1,-1,-1,-1,-1,-1],"split_conditions":[4.2125997E-1,2.4519044E-1,5.8069533E-1,1.8102261E-1,3.243833E-1,8.798107E-1,7.7485347E-1,1.3175844E-1,1.5914114E-2,3.0198336E-1,3.5989767E-1,4.4497868E-1,1.104314E-2,7.915903E-1,6.0800177E-1,-8.745109E-3,-7.1150586E-3,-8.174427E-4,5.219214E-1,7.578262E-2,2.653736E-1,4.8648304E-1,3.5442275E-1,3.5953518E-2,4.688661E-1,1.4718552E-1,6.4768717E-3,1.8605528E-2,5.3930404E-3,-4.8219757E-3,-1.2770512E-3,-2.874879E-3,-4.6084152E-4,-2.3584515E-4,-1.8925313E-3,-2.053541E-4,1.0014462E-3,2.2132585E-3,-3.245622E-4,4.7504156E-5,3.105426E-3,4.7130375E-3,6.264515E-3,9.223403E-3,1.3894473E-2],"split_indices":[652,652,652,652,650,225,652,652,0,652,138,652,0,5,0,0,0,0,138,642,9,470,290,32,228,580,0,0,0,0,0,0,0,0,0,0,0,0,0,0,0,0,0,0,0],"split_type":[0,0,0,0,0,0,0,0,0,0,0,0,0,0,0,0,0,0,0,0,0,0,0,0,0,0,0,0,0,0,0,0,0,0,0,0,0,0,0,0,0,0,0,0,0],"sum_hessian":[5.36E2,3.7E2,1.66E2,2.34E2,1.36E2,8.7E1,7.9E1,1.61E2,7.3E1,5E1,8.6E1,8.5E1,2E0,4.6E1,3.3E1,9.6E1,6.5E1,1E0,7.2E1,3.6E1,1.4E1,5.2E1,3.4E1,1.7E1,6.8E1,4.3E1,3E0,3.2E1,1E0,7.1E1,1E0,3.3E1,3E0,1E1,4E0,1.9E1,3.3E1,3E1,4E0,1E0,1.6E1,3.6E1,3.2E1,9E0,3.4E1],"tree_param":{"num_deleted":"0","num_feature":"660","num_nodes":"45","size_leaf_vector":"1"}},{"base_weights":[5.3740107E-4,-8.630925E-2,1.9346894E-1,-1.3449447E-1,-1.078092E-3,1.0114326E-1,2.9260886E-1,-1.581761E-1,-9.612531E-2,-4.0610258E-2,2.1199543E-2,9.478994E-2,9.382525E-3,2.4903841E-1,1.7846247E-2,-8.506135E-3,-7.1664304E-3,-5.6187822E-3,-8.389044E-2,-5.024835E-2,-1.5414024E-2,1.0748981E-2,3.6418978E-2,5.3030584E-2,1.03099495E-1,2.5421333E-1,6.233989E-3,-1.3614207E-3,-4.2727906E-3,-9.889252E-4,-2.793522E-3,1.18362266E-4,-1.3765615E-3,-2.8797103E-5,1.0837897E-3,2.1061648E-3,-3.1157912E-4,3.3518064E-3,1.5322762E-3,5.22994E-3,1.7624245E-3,8.80835E-3,1.3385347E-2],"categories":[],"categories_nodes":[],"categories_segments":[],"categories_sizes":[],"default_left":[0,0,0,0,0,0,0,0,0,0,0,0,0,0,0,0,0,0,0,0,0,0,0,0,0,0,0,0,0,0,0,0,0,0,0,0,0,0,0,0,0,0,0],"id":7,"left_children":[1,3,5,7,9,11,13,15,17,19,21,23,-1,25,-1,-1,-1,-1,27,29,31,33,35,37,39,41,-1,-1,-1,-1,-1,-1,-1,-1,-1,-1,-1,-1,-1,-1,-1,-1,-1],"loss_changes":[9.014379E0,1.5235083E0,1.4989824E0,2.0014381E-1,1.19753145E-1,3.0578136E-2,1.3529396E-1,1.3363361E-3,9.063065E-3,1.11248195E-2,1.3446026E-2,2.3680747E-2,0E0,1.1253357E-3,0E0,0E0,0E0,0E0,2.7288795E-3,4.890606E-3,3.2970628E-3,6.570985E-3,8.777723E-3,2.9618815E-3,3.3323765E-3,3.38912E-3,0E0,0E0,0E0,0E0,0E0,0E0,0E0,0E0,0E0,0E0,0E0,0E0,0E0,0E0,0E0,0E0,0E0],"parents":[2147483647,0,0,1,1,2,2,3,3,4,4,5,5,6,6,7,7,8,8,9,9,10,10,11,11,13,13,18,18,19,19,20,20,21,21,22,22,23,23,24,24,25,25],"right_children":[2,4,6,8,10,12,14,16,18,20,22,24,-1,26,-1,-1,-1,-1,28,30,32,34,36,38,40,42,-1,-1,-1,-1,-1,-1,-1,-1,-1,-1,-1,-1,-1,-1,-1,-1,-1],"split_conditions":[4.2125997E-1,2.496688E-1,5.8069533E-1,1.6122364E-1,3.243833E-1,8.459124E-1,7.731174E-1,1.15581624E-1,1.9253843E-1,3.0198336E-1,3.5989767E-1,4.3705532E-1,9.382525E-3,7.915903E-1,1.7846247E-2,-8.506135E-3,-7.1664304E-3,-5.6187822E-3,2.4780361E-2,1.2561674E-1,5.1426373E-2,2.5661296E-1,3.5442275E-1,5.371257E-1,7.0516026E-1,1.4718552E-1,6.233989E-3,-1.3614207E-3,-4.2727906E-3,-9.889252E-4,-2.793522E-3,1.18362266E-4,-1.3765615E-3,-2.8797103E-5,1.0837897E-3,2.1061648E-3,-3.1157912E-4,3.3518064E-3,1.5322762E-3,5.22994E-3,1.7624245E-3,8.80835E-3,1.3385347E-2],"split_indices":[652,652,652,652,650,168,651,652,650,652,138,650,0,5,0,0,0,0,180,46,395,449,290,205,282,580,0,0,0,0,0,0,0,0,0,0,0,0,0,0,0,0,0],"split_type":[0,0,0,0,0,0,0,0,0,0,0,0,0,0,0,0,0,0,0,0,0,0,0,0,0,0,0,0,0,0,0,0,0,0,0,0,0,0,0,0,0,0,0],"sum_hessian":[5.36E2,3.7E2,1.66E2,2.36E2,1.34E2,8.7E1,7.9E1,1.44E2,9.2E1,4.8E1,8.6E1,8.3E1,4E0,5E1,2.9E1,7.4E1,7E1,3.6E1,5.6E1,3.4E1,1.4E1,5.2E1,3.4E1,1.5E1,6.8E1,4.7E1,3E0,2E0,5.4E1,6E0,2.8E1,6E0,8E0,2.6E1,2.6E1,3E1,4E0,8E0,7E0,6.6E1,2E0,9E0,3.8E1],"tree_param":{"num_deleted":"0","num_feature":"660","num_nodes":"43","size_leaf_vector":"1"}},{"base_weights":[5.820701E-4,-8.2072265E-2,1.8419988E-1,-1.2842578E-1,-1.9616783E-3,9.632767E-2,2.7855682E-1,-1.4709108E-1,-8.582844E-2,-3.9681207E-2,2.0172318E-2,9.2012376E-2,1.1793954E-2,2.3558843E-1,3.3887497E-1,-7.885383E-3,-6.395229E-3,-1.3678994E-3,-8.707265E-2,-5.116178E-2,-1.9328231E-2,1.0584413E-2,3.554088E-2,6.686466E-2,1.0688328E-1,9.28762E-3,1.3007055E-2,1.7381897E-2,7.060387E-3,-4.3836418E-3,-1.1114769E-3,-4.8708945E-4,-2.8365504E-3,-3.8186347E-4,-1.7955007E-3,2.4117113E-3,3.7423635E-4,1.2099366E-3,2.4602655E-3,3.9896606E-3,2.0886161E-3,5.5435966E-3,2.8580118E-3],"categories":[],"categories_nodes":[],"categories_segments":[],"categories_sizes":[],"default_left":[0,0,0,0,0,0,0,0,0,0,0,0,0,0,0,0,0,0,0,0,0,0,0,0,0,0,0,0,0,0,0,0,0,0,0,0,0,0,0,0,0,0,0],"id":8,"left_children":[1,3,5,7,9,11,13,15,17,19,21,23,-1,25,27,-1,-1,-1,29,31,33,35,37,39,41,-1,-1,-1,-1,-1,-1,-1,-1,-1,-1,-1,-1,-1,-1,-1,-1,-1,-1],"loss_changes":[8.165064E0,1.3774223E0,1.3578229E0,1.7422199E-1,1.1517955E-1,3.1290233E-2,1.2750673E-1,1.282692E-2,3.0012727E-3,1.09279975E-2,1.2443475E-2,2.5388598E-2,0E0,1.2858629E-2,4.607916E-3,0E0,0E0,0E0,8.532405E-4,6.829001E-3,3.6028856E-3,6.0576224E-3,3.9237626E-3,8.021131E-3,4.173875E-3,0E0,0E0,0E0,0E0,0E0,0E0,0E0,0E0,0E0,0E0,0E0,0E0,0E0,0E0,0E0,0E0,0E0,0E0],"parents":[2147483647,0,0,1,1,2,2,3,3,4,4,5,5,6,6,7,7,8,8,9,9,10,10,11,11,13,13,14,14,18,18,19,19,20,20,21,21,22,22,23,23,24,24],"right_children":[2,4,6,8,10,12,14,16,18,20,22,24,-1,26,28,-1,-1,-1,30,32,34,36,38,40,42,-1,-1,-1,-1,-1,-1,-1,-1,-1,-1,-1,-1,-1,-1,-1,-1,-1,-1],"split_conditions":[4.2125997E-1,2.4519044E-1,5.8069533E-1,1.8102261E-1,3.243833E-1,8.55488E-1,6.6496587E-1,1.3463065E-1,1.8100524E-2,2.8969586E-1,3.8550887E-1,4.7210908E-1,1.1793954E-2,5.3457236E-1,3.016007E-1,-7.885383E-3,-6.395229E-3,-1.3678994E-3,3.5292593E-1,1.2261369E-1,2.653736E-1,1.8017817E-2,5.1290447E-1,4.839093E-1,1.2624562E-1,9.28762E-3,1.3007055E-2,1.7381897E-2,7.060387E-3,-4.3836418E-3,-1.1114769E-3,-4.8708945E-4,-2.8365504E-3,-3.8186347E-4,-1.7955007E-3,2.4117113E-3,3.7423635E-4,1.2099366E-3,2.4602655E-3,3.9896606E-3,2.0886161E-3,5.5435966E-3,2.8580118E-3],"split_indices":[652,652,652,652,650,177,546,652,202,652,652,652,0,52,207,0,0,0,119,46,9,147,371,195,76,0,0,0,0,0,0,0,0,0,0,0,0,0,0,0,0,0,0],"split_type":[0,0,0,0,0,0,0,0,0,0,0,0,0,0,0,0,0,0,0,0,0,0,0,0,0,0,0,0,0,0,0,0,0,0,0,0,0,0,0,0,0,0,0],"sum_hessian":[5.36E2,3.7E2,1.66E2,2.34E2,1.36E2,8.7E1,7.9E1,1.61E2,7.3E1,5E1,8.6E1,8.6E1,1E0,4.9E1,3E1,9.9E1,6.2E1,2E0,7.1E1,3.1E1,1.9E1,5.4E1,3.2E1,3.4E1,5.2E1,1.9E1,3E1,2.8E1,2E0,7E1,1E0,4E0,2.7E1,1.2E1,7E0,3E0,5.1E1,1.9E1,1.3E1,2.1E1,1.3E1,4.7E1,5E0],"tree_param":{"num_deleted":"0","num_feature":"660","num_nodes":"43","size_leaf_vector":"1"}},{"base_weights":[6.5133616E-4,-7.802306E-2,1.7542708E-1,-1.2209446E-1,-1.8566208E-3,9.180986E-2,2.652132E-1,-1.4300682E-1,-8.7430865E-2,-3.780501E-2,1.9237913E-2,8.75782E-2,1.1499106E-2,2.2322883E-1,1.6060693E-2,-7.6974854E-3,-6.4716632E-3,-4.9644373E-3,-7.421735E-2,-4.8707552E-2,-1.8470692E-2,9.575607E-3,3.331975E-2,6.3695095E-2,1.0169764E-1,8.624501E-3,1.2356294E-2,-1.533572E-3,-3.8244654E-3,-4.676059E-4,-2.6997877E-3,5.1059043E-5,-1.3448646E-3,-2.2800402E-4,8.8045414E-4,-6.039824E-4,1.8976716E-3,3.6505267E-3,1.6552722E-3,2.4363613E-3,5.251366E-3],"categories":[],"categories_nodes":[],"categories_segments":[],"categories_sizes":[],"default_left":[0,0,0,0,0,0,0,0,0,0,0,0,0,0,0,0,0,0,0,0,0,0,0,0,0,0,0,0,0,0,0,0,0,0,0,0,0,0,0,0,0],"id":9,"left_children":[1,3,5,7,9,11,13,15,17,19,21,23,-1,25,-1,-1,-1,-1,27,29,31,33,35,37,39,-1,-1,-1,-1,-1,-1,-1,-1,-1,-1,-1,-1,-1,-1,-1,-1],"loss_changes":[7.3976393E0,1.245132E0,1.2294307E0,1.5784788E-1,1.04616374E-1,3.131193E-2,1.1638832E-1,1.6109943E-3,6.8892837E-3,9.8508E-3,1.1518426E-2,2.286017E-2,0E0,1.6786098E-2,0E0,0E0,0E0,0E0,2.3038983E-3,6.15485E-3,3.3124709E-3,6.0989102E-3,7.821284E-3,7.5564235E-3,4.2301416E-3,0E0,0E0,0E0,0E0,0E0,0E0,0E0,0E0,0E0,0E0,0E0,0E0,0E0,0E0,0E0,0E0],"parents":[2147483647,0,0,1,1,2,2,3,3,4,4,5,5,6,6,7,7,8,8,9,9,10,10,11,11,13,13,18,18,19,19,20,20,21,21,22,22,23,23,24,24],"right_children":[2,4,6,8,10,12,14,16,18,20,22,24,-1,26,-1,-1,-1,-1,28,30,32,34,36,38,40,-1,-1,-1,-1,-1,-1,-1,-1,-1,-1,-1,-1,-1,-1,-1,-1],"split_conditions":[4.2125997E-1,2.4519044E-1,5.8069533E-1,1.6122364E-1,3.243833E-1,8.55488E-1,6.6481656E-1,1.15581624E-1,1.9580054E-1,2.8969586E-1,3.5989767E-1,4.7210908E-1,1.1499106E-2,5.3457236E-1,1.6060693E-2,-7.6974854E-3,-6.4716632E-3,-4.9644373E-3,1.7792441E-1,1.2261369E-1,4.5908973E-2,4.8648304E-1,2.1760462E-1,5.1504576E-1,3.0379364E-2,8.624501E-3,1.2356294E-2,-1.533572E-3,-3.8244654E-3,-4.676059E-4,-2.6997877E-3,5.1059043E-5,-1.3448646E-3,-2.2800402E-4,8.8045414E-4,-6.039824E-4,1.8976716E-3,3.6505267E-3,1.6552722E-3,2.4363613E-3,5.251366E-3],"split_indices":[652,652,652,652,650,177,535,652,650,652,138,652,0,52,0,0,0,0,585,46,543,470,8,205,296,0,0,0,0,0,0,0,0,0,0,0,0,0,0,0,0],"split_type":[0,0,0,0,0,0,0,0,0,0,0,0,0,0,0,0,0,0,0,0,0,0,0,0,0,0,0,0,0,0,0,0,0,0,0,0,0,0,0,0,0],"sum_hessian":[5.36E2,3.7E2,1.66E2,2.34E2,1.36E2,8.7E1,7.9E1,1.44E2,9E1,5E1,8.6E1,8.6E1,1E0,4.8E1,3.1E1,7.4E1,7E1,4.4E1,4.6E1,3.1E1,1.9E1,5.2E1,3.4E1,3.4E1,5.2E1,1.8E1,3E1,3E0,4.3E1,4E0,2.7E1,6E0,1.3E1,1.9E1,3.3E1,3E0,3.1E1,2.5E1,9E0,4E0,4.8E1],"tree_param":{"num_deleted":"0","num_feature":"660","num_nodes":"41","size_leaf_vector":"1"}},{"base_weights":[6.83069E-4,-7.7139944E-2,1.6074698E-1,-1.16093956E-1,-5.020165E-3,8.348685E-2,2.5241554E-1,-1.3299118E-1,-7.75339E-2,-3.9414123E-2,1.3464933E-2,7.968499E-2,1.1211628E-2,2.1380095E-1,1.5482326E-2,-7.255318E-3,-5.9379647E-3,-1.2711838E-3,-7.8628294E-2,-4.5643434E-2,-9.425378E-3,-8.467283E-3,1.7972337E-2,4.0866822E-2,9.000918E-2,2.1828267E-1,5.3285095E-3,-2.473134E-3,-4.0504127E-3,-1.0769973E-3,-2.5274793E-3,2.8345984E-4,-7.2739995E-4,-9.989414E-4,9.275785E-4,-3.95113E-4,1.0260778E-3,2.2992776E-3,-3.4401467E-4,4.082512E-3,5.686248E-3,1.1341247E-2,6.7922953E-3],"categories":[],"categories_nodes":[],"categories_segments":[],"categories_sizes":[],"default_left":[0,0,0,0,0,0,0,0,0,0,0,0,0,0,0,0,0,0,0,0,0,0,0,0,0,0,0,0,0,0,0,0,0,0,0,0,0,0,0,0,0,0,0],"id":10,"left_children":[1,3,5,7,9,11,13,15,17,19,21,23,-1,25,-1,-1,-1,-1,27,29,31,33,35,37,39,41,-1,-1,-1,-1,-1,-1,-1,-1,-1,-1,-1,-1,-1,-1,-1,-1,-1],"loss_changes":[6.7016244E0,1.0164037E0,1.2254157E0,1.4280462E-1,8.191E-2,3.403628E-2,1.10593796E-1,1.0699749E-2,2.221167E-3,7.976204E-3,8.456195E-3,3.4795225E-2,0E0,1.2469292E-3,0E0,0E0,0E0,0E0,9.908378E-4,3.2866076E-3,7.783895E-4,5.036069E-3,4.779363E-3,5.6932904E-3,5.582154E-3,2.9881E-3,0E0,0E0,0E0,0E0,0E0,0E0,0E0,0E0,0E0,0E0,0E0,0E0,0E0,0E0,0E0,0E0,0E0],"parents":[2147483647,0,0,1,1,2,2,3,3,4,4,5,5,6,6,7,7,8,8,9,9,10,10,11,11,13,13,18,18,19,19,20,20,21,21,22,22,23,23,24,24,25,25],"right_children":[2,4,6,8,10,12,14,16,18,20,22,24,-1,26,-1,-1,-1,-1,28,30,32,34,36,38,40,42,-1,-1,-1,-1,-1,-1,-1,-1,-1,-1,-1,-1,-1,-1,-1,-1,-1],"split_conditions":[4.079939E-1,2.4519044E-1,5.8069533E-1,1.8102261E-1,3.1866008E-1,8.55488E-1,7.731174E-1,1.21278524E-1,1.8100524E-2,5.547618E-1,3.7961572E-2,4.2812672E-1,1.1211628E-2,7.915903E-1,1.5482326E-2,-7.255318E-3,-5.9379647E-3,-1.2711838E-3,3.674333E-1,1.2561674E-1,1.2709416E-2,8.1760764E-2,2.5652971E-2,9.569707E-2,5.346404E-1,9.179614E-1,5.3285095E-3,-2.473134E-3,-4.0504127E-3,-1.0769973E-3,-2.5274793E-3,2.8345984E-4,-7.2739995E-4,-9.989414E-4,9.275785E-4,-3.95113E-4,1.0260778E-3,2.2992776E-3,-3.4401467E-4,4.082512E-3,5.686248E-3,1.1341247E-2,6.7922953E-3],"split_indices":[652,652,652,652,652,177,651,652,202,634,373,650,0,5,0,0,0,0,305,46,37,87,565,219,652,397,0,0,0,0,0,0,0,0,0,0,0,0,0,0,0,0,0],"split_type":[0,0,0,0,0,0,0,0,0,0,0,0,0,0,0,0,0,0,0,0,0,0,0,0,0,0,0,0,0,0,0,0,0,0,0,0,0,0,0,0,0,0,0],"sum_hessian":[5.36E2,3.61E2,1.75E2,2.34E2,1.27E2,9.6E1,7.9E1,1.61E2,7.3E1,4.4E1,8.3E1,9.5E1,1E0,5E1,2.9E1,8.2E1,7.9E1,2E0,7.1E1,3.6E1,8E0,1.4E1,6.9E1,2.1E1,7.4E1,4.7E1,3E0,7E0,6.4E1,7E0,2.9E1,2E0,6E0,1E1,4E0,6E0,6.3E1,1.9E1,2E0,5.8E1,1.6E1,4.1E1,6E0],"tree_param":{"num_deleted":"0","num_feature":"660","num_nodes":"43","size_leaf_vector":"1"}},{"base_weights":[7.185692E-4,-7.179531E-2,1.5634356E-1,-1.1037857E-1,-3.0820642E-3,8.16546E-2,2.4028158E-1,-6.556075E-3,-8.1560016E-2,-3.443181E-2,1.6218167E-2,7.774692E-2,1.0931337E-2,2.0223913E-1,2.9388937E-1,-4.7402745E-3,-6.875824E-2,-4.2144142E-2,-1.3112603E-2,2.5767E-3,2.3496423E-2,3.8355663E-2,8.5638985E-2,7.963881E-3,1.1171619E-2,1.50835095E-2,6.0355794E-3,-1.0684744E-3,-3.507165E-3,-2.2576333E-3,-3.0178466E-4,-1.6500693E-4,-1.6038752E-3,-9.2210696E-4,4.887785E-4,1.3065363E-3,-3.7729382E-4,2.2399973E-3,-3.3254773E-4,3.9067524E-3,5.5222856E-3],"categories":[],"categories_nodes":[],"categories_segments":[],"categories_sizes":[],"default_left":[0,0,0,0,0,0,0,0,0,0,0,0,0,0,0,0,0,0,0,0,0,0,0,0,0,0,0,0,0,0,0,0,0,0,0,0,0,0,0,0,0],"id":11,"left_children":[1,3,5,7,9,11,13,-1,15,17,19,21,-1,23,25,-1,27,29,31,33,35,37,39,-1,-1,-1,-1,-1,-1,-1,-1,-1,-1,-1,-1,-1,-1,-1,-1,-1,-1],"loss_changes":[6.071255E0,9.726434E-1,1.0524206E0,1.297841E-1,8.1031054E-2,3.22448E-2,1.0371399E-1,0E0,1.0607481E-2,7.832844E-3,8.180203E-3,2.5005221E-2,0E0,9.937048E-3,5.356312E-3,0E0,2.1110475E-3,3.746897E-3,2.6855264E-3,4.7196387E-3,4.613016E-3,5.2285604E-3,5.3314567E-3,0E0,0E0,0E0,0E0,0E0,0E0,0E0,0E0,0E0,0E0,0E0,0E0,0E0,0E0,0E0,0E0,0E0,0E0],"parents":[2147483647,0,0,1,1,2,2,3,3,4,4,5,5,6,6,8,8,9,9,10,10,11,11,13,13,14,14,16,16,17,17,18,18,19,19,20,20,21,21,22,22],"right_children":[2,4,6,8,10,12,14,-1,16,18,20,22,-1,24,26,-1,28,30,32,34,36,38,40,-1,-1,-1,-1,-1,-1,-1,-1,-1,-1,-1,-1,-1,-1,-1,-1,-1,-1],"split_conditions":[4.166106E-1,2.4519044E-1,5.8069533E-1,1.5347426E-1,3.243833E-1,8.55488E-1,6.6496587E-1,-6.556075E-3,1.9253843E-1,3.0198336E-1,4.62546E-2,4.2812672E-1,1.0931337E-2,5.3457236E-1,3.016007E-1,-4.7402745E-3,2.4780361E-2,7.578262E-2,2.653736E-1,5.2422696E-1,8.865933E-2,9.569707E-2,5.363093E-1,7.963881E-3,1.1171619E-2,1.50835095E-2,6.0355794E-3,-1.0684744E-3,-3.507165E-3,-2.2576333E-3,-3.0178466E-4,-1.6500693E-4,-1.6038752E-3,-9.2210696E-4,4.887785E-4,1.3065363E-3,-3.7729382E-4,2.2399973E-3,-3.3254773E-4,3.9067524E-3,5.5222856E-3],"split_indices":[652,652,652,652,650,177,546,0,650,652,213,650,0,52,207,0,180,642,9,579,263,219,652,0,0,0,0,0,0,0,0,0,0,0,0,0,0,0,0,0,0],"split_type":[0,0,0,0,0,0,0,0,0,0,0,0,0,0,0,0,0,0,0,0,0,0,0,0,0,0,0,0,0,0,0,0,0,0,0,0,0,0,0,0,0],"sum_hessian":[5.36E2,3.66E2,1.7E2,2.34E2,1.32E2,9.1E1,7.9E1,1.34E2,1E2,5E1,8.2E1,9E1,1E0,4.9E1,3E1,4.6E1,5.4E1,3.6E1,1.4E1,2.9E1,5.3E1,1.6E1,7.4E1,1.9E1,3E1,2.8E1,2E0,2E0,5.2E1,3.3E1,3E0,1E1,4E0,7E0,2.2E1,4.9E1,4E0,1.4E1,2E0,6E1,1.4E1],"tree_param":{"num_deleted":"0","num_feature":"660","num_nodes":"41","size_leaf_vector":"1"}},{"base_weights":[7.623763E-4,-6.97476E-2,1.4578424E-1,-1.0754107E-1,-9.049806E-3,7.583889E-2,2.2877069E-1,-6.2306994E-3,-8.043562E-2,-4.009689E-2,1.2125595E-2,7.218803E-2,1.0658054E-2,1.972284E-1,2.902746E-1,-4.508304E-3,-6.792941E-2,-4.4033404E-2,-5.688446E-3,-8.105862E-3,1.6287684E-2,3.722019E-2,8.148275E-2,7.112083E-3,2.0899202E-1,1.5034973E-2,5.6796265E-3,-3.479028E-3,-1.1360308E-3,-1.213017E-3,-2.4432244E-3,-5.672661E-4,2.817914E-4,-9.37396E-4,8.4639195E-4,6.53102E-4,1.8349522E-3,2.09533E-3,-3.2146325E-4,3.1699822E-3,4.4891997E-3,1.0549912E-2,3.0681193E-3],"categories":[],"categories_nodes":[],"categories_segments":[],"categories_sizes":[],"default_left":[0,0,0,0,0,0,0,0,0,0,0,0,0,0,0,0,0,0,0,0,0,0,0,0,0,0,0,0,0,0,0,0,0,0,0,0,0,0,0,0,0,0,0],"id":12,"left_children":[1,3,5,7,9,11,13,-1,15,17,19,21,-1,23,25,-1,27,29,31,33,35,37,39,-1,41,-1,-1,-1,-1,-1,-1,-1,-1,-1,-1,-1,-1,-1,-1,-1,-1,-1,-1],"loss_changes":[5.501255E0,8.294474E-1,1.004245E0,9.317446E-2,9.252702E-2,3.3242762E-2,9.79476E-2,0E0,4.705608E-3,7.470131E-3,7.205257E-3,2.8168797E-2,0E0,6.495714E-3,1.1889935E-2,0E0,1.6288906E-3,3.6863238E-3,5.1236025E-4,4.3135136E-3,4.129419E-3,4.7697313E-3,5.56615E-3,0E0,8.440018E-5,0E0,0E0,0E0,0E0,0E0,0E0,0E0,0E0,0E0,0E0,0E0,0E0,0E0,0E0,0E0,0E0,0E0,0E0],"parents":[2147483647,0,0,1,1,2,2,3,3,4,4,5,5,6,6,8,8,9,9,10,10,11,11,13,13,14,14,16,16,17,17,18,18,19,19,20,20,21,21,22,22,24,24],"right_children":[2,4,6,8,10,12,14,-1,16,18,20,22,-1,24,26,-1,28,30,32,34,36,38,40,-1,42,-1,-1,-1,-1,-1,-1,-1,-1,-1,-1,-1,-1,-1,-1,-1,-1,-1,-1],"split_conditions":[4.079939E-1,2.2728503E-1,5.8069533E-1,1.5347426E-1,3.1866008E-1,8.55488E-1,8.3836657E-1,-6.2306994E-3,1.9253843E-1,6.320759E-1,3.7961572E-2,4.2812672E-1,1.0658054E-2,3.4475628E-1,4.984361E-1,-4.508304E-3,7.901762E-1,1.395083E-1,5.1426373E-2,8.1760764E-2,5.1323444E-1,9.569707E-2,4.6080104E-1,7.112083E-3,7.915903E-1,1.5034973E-2,5.6796265E-3,-3.479028E-3,-1.1360308E-3,-1.213017E-3,-2.4432244E-3,-5.672661E-4,2.817914E-4,-9.37396E-4,8.4639195E-4,6.53102E-4,1.8349522E-3,2.09533E-3,-3.2146325E-4,3.1699822E-3,4.4891997E-3,1.0549912E-2,3.0681193E-3],"split_indices":[652,652,652,652,652,177,652,0,650,634,373,650,0,557,1,0,183,133,21,87,111,219,337,0,5,0,0,0,0,0,0,0,0,0,0,0,0,0,0,0,0,0,0],"split_type":[0,0,0,0,0,0,0,0,0,0,0,0,0,0,0,0,0,0,0,0,0,0,0,0,0,0,0,0,0,0,0,0,0,0,0,0,0,0,0,0,0,0,0],"sum_hessian":[5.36E2,3.61E2,1.75E2,2.22E2,1.39E2,9.6E1,7.9E1,1.34E2,8.8E1,5.6E1,8.3E1,9.5E1,1E0,5.5E1,2.4E1,4.6E1,4.2E1,5E1,6E0,1.4E1,6.9E1,2.1E1,7.4E1,1.2E1,4.3E1,2.2E1,2E0,4E1,2E0,1.1E1,3.9E1,4E0,2E0,1E1,4E0,6.1E1,8E0,1.9E1,2E0,2.6E1,4.8E1,4.2E1,1E0],"tree_param":{"num_deleted":"0","num_feature":"660","num_nodes":"43","size_leaf_vector":"1"}},{"base_weights":[8.0738193E-4,-6.63069E-2,1.3884467E-1,-9.976528E-2,-4.3613873E-3,7.225406E-2,2.1785021E-1,-1.14304915E-1,-6.6587076E-2,-3.128152E-2,1.3296152E-2,6.8676874E-2,1.0391602E-2,1.4257449E-2,1.9066481E-1,-6.3289995E-3,-1.02544285E-1,-1.0756324E-3,-6.7540355E-2,6.414205E-3,-3.4626137E-2,1.7265156E-2,-4.524672E-3,3.54398E-2,7.751073E-2,7.281679E-3,1.0476979E-2,-2.3825446E-3,-5.196055E-3,-1.5330706E-3,-3.434971E-3,4.804801E-4,-1.5918464E-4,-1.9276495E-3,-3.33971E-4,9.1824855E-5,1.0395149E-3,-7.7648956E-4,7.285652E-4,1.9958012E-3,-3.1074733E-4,3.5289477E-3,5.133604E-3],"categories":[],"categories_nodes":[],"categories_segments":[],"categories_sizes":[],"default_left":[0,0,0,0,0,0,0,0,0,0,0,0,0,0,0,0,0,0,0,0,0,0,0,0,0,0,0,0,0,0,0,0,0,0,0,0,0,0,0,0,0,0,0],"id":13,"left_children":[1,3,5,7,9,11,13,15,17,19,21,23,-1,-1,25,-1,27,-1,29,31,33,35,37,39,41,-1,-1,-1,-1,-1,-1,-1,-1,-1,-1,-1,-1,-1,-1,-1,-1,-1,-1],"loss_changes":[4.984121E0,7.498447E-1,9.102001E-1,1.0575247E-1,6.1259862E-2,3.2770574E-2,9.1995716E-2,1.0406733E-2,1.7267168E-3,6.6520683E-3,5.59513E-3,2.543974E-2,0E0,0E0,2.0481348E-2,0E0,1.6989708E-3,0E0,9.711981E-4,1.8393954E-4,4.900392E-3,3.4426637E-3,3.3785917E-3,4.3501053E-3,5.8344603E-3,0E0,0E0,0E0,0E0,0E0,0E0,0E0,0E0,0E0,0E0,0E0,0E0,0E0,0E0,0E0,0E0,0E0,0E0],"parents":[2147483647,0,0,1,1,2,2,3,3,4,4,5,5,6,6,7,7,8,8,9,9,10,10,11,11,14,14,16,16,18,18,19,19,20,20,21,21,22,22,23,23,24,24],"right_children":[2,4,6,8,10,12,14,16,18,20,22,24,-1,-1,26,-1,28,-1,30,32,34,36,38,40,42,-1,-1,-1,-1,-1,-1,-1,-1,-1,-1,-1,-1,-1,-1,-1,-1,-1,-1],"split_conditions":[4.079939E-1,2.4519044E-1,5.8069533E-1,1.8102261E-1,3.243833E-1,8.55488E-1,1.1761727E-1,1.15581624E-1,1.8100524E-2,3.6851197E-2,6.449777E-1,4.2812672E-1,1.0391602E-2,1.4257449E-2,5.208451E-1,-6.3289995E-3,4.7225848E-1,-1.0756324E-3,1.6439569E-1,3.4672022E-1,1.6927391E-1,2.7546022E-2,5.810588E-1,9.569707E-2,9.8965085E-1,7.281679E-3,1.0476979E-2,-2.3825446E-3,-5.196055E-3,-1.5330706E-3,-3.434971E-3,4.804801E-4,-1.5918464E-4,-1.9276495E-3,-3.33971E-4,9.1824855E-5,1.0395149E-3,-7.7648956E-4,7.285652E-4,1.9958012E-3,-3.1074733E-4,3.5289477E-3,5.133604E-3],"split_indices":[652,652,652,652,650,177,236,652,202,323,381,650,0,0,52,0,349,0,284,1,301,477,535,219,292,0,0,0,0,0,0,0,0,0,0,0,0,0,0,0,0,0,0],"split_type":[0,0,0,0,0,0,0,0,0,0,0,0,0,0,0,0,0,0,0,0,0,0,0,0,0,0,0,0,0,0,0,0,0,0,0,0,0,0,0,0,0,0,0],"sum_hessian":[5.36E2,3.61E2,1.75E2,2.34E2,1.27E2,9.6E1,7.9E1,1.61E2,7.3E1,5E1,7.7E1,9.5E1,1E0,2E1,5.9E1,7.4E1,8.7E1,2E0,7.1E1,4E0,4.6E1,6.3E1,1.4E1,2.1E1,7.4E1,2E1,3.9E1,3E0,8.4E1,3E0,6.8E1,3E0,1E0,4E1,6E0,1.2E1,5.1E1,9E0,5E0,1.9E1,2E0,6.1E1,1.3E1],"tree_param":{"num_deleted":"0","num_feature":"660","num_nodes":"43","size_leaf_vector":"1"}},{"base_weights":[8.265038E-4,-6.1707664E-2,1.3503243E-1,-9.447873E-2,-1.9485139E-3,7.0672974E-2,2.073579E-1,-1.0982148E-1,-6.522559E-2,-2.8951457E-2,1.4016458E-2,6.699606E-2,1.0131813E-2,1.5902452E-2,1.9064154E-1,-6.016769E-3,-9.8591946E-2,-4.425442E-2,-6.844208E-2,-1.819069E-2,-4.243292E-2,1.8587877E-3,2.0511156E-2,4.7441367E-2,8.0121286E-2,7.3395777E-3,2.0699969E-1,-1.3120443E-3,-4.958781E-3,-5.7665113E-4,-2.2942147E-3,-1.7349329E-3,-3.496936E-3,3.078878E-4,-1.1166376E-3,-1.014963E-3,-2.6024904E-3,-3.8064356E-4,7.4152043E-4,1.2848818E-3,2.656562E-4,3.0212102E-3,1.3542844E-3,3.0447596E-3,4.5417715E-3,1.0780804E-2,6.1634067E-3],"categories":[],"categories_nodes":[],"categories_segments":[],"categories_sizes":[],"default_left":[0,0,0,0,0,0,0,0,0,0,0,0,0,0,0,0,0,0,0,0,0,0,0,0,0,0,0,0,0,0,0,0,0,0,0,0,0,0,0,0,0,0,0,0,0,0,0],"id":14,"left_children":[1,3,5,7,9,11,13,15,17,19,21,23,-1,-1,25,-1,27,29,31,33,35,37,39,41,43,-1,45,-1,-1,-1,-1,-1,-1,-1,-1,-1,-1,-1,-1,-1,-1,-1,-1,-1,-1,-1,-1],"loss_changes":[4.5150814E0,7.1853805E-1,7.8132105E-1,9.920812E-2,5.6880053E-2,3.1064242E-2,8.739495E-2,6.317973E-3,2.6372075E-3,6.336592E-3,6.515585E-3,1.9554943E-2,0E0,0E0,2.1260262E-2,0E0,7.7587366E-4,2.1746196E-4,1.1588633E-3,3.0622482E-3,3.4134202E-3,3.798785E-3,4.1199774E-3,8.670077E-3,5.386114E-3,0E0,9.494543E-3,0E0,0E0,0E0,0E0,0E0,0E0,0E0,0E0,0E0,0E0,0E0,0E0,0E0,0E0,0E0,0E0,0E0,0E0,0E0,0E0],"parents":[2147483647,0,0,1,1,2,2,3,3,4,4,5,5,6,6,7,7,8,8,9,9,10,10,11,11,14,14,16,16,17,17,18,18,19,19,20,20,21,21,22,22,23,23,24,24,26,26],"right_children":[2,4,6,8,10,12,14,16,18,20,22,24,-1,-1,26,-1,28,30,32,34,36,38,40,42,44,-1,46,-1,-1,-1,-1,-1,-1,-1,-1,-1,-1,-1,-1,-1,-1,-1,-1,-1,-1,-1,-1],"split_conditions":[4.166106E-1,2.496688E-1,5.8069533E-1,1.7069146E-1,3.243833E-1,8.55488E-1,4.6839127E-1,1.15581624E-1,4.697219E-1,9.8636836E-2,4.62546E-2,4.7210908E-1,1.0131813E-2,1.5902452E-2,3.997008E-1,-6.016769E-3,1.9336532E-1,1.5914114E-2,2.8644487E-1,3.6851197E-2,2.1988288E-1,2.524289E-1,1.4862858E-1,5.088516E-1,4.4490525E-1,7.3395777E-3,7.965365E-1,-1.3120443E-3,-4.958781E-3,-5.7665113E-4,-2.2942147E-3,-1.7349329E-3,-3.496936E-3,3.078878E-4,-1.1166376E-3,-1.014963E-3,-2.6024904E-3,-3.8064356E-4,7.4152043E-4,1.2848818E-3,2.656562E-4,3.0212102E-3,1.3542844E-3,3.0447596E-3,4.5417715E-3,1.0780804E-2,6.1634067E-3],"split_indices":[652,652,652,652,650,177,19,652,591,224,213,652,0,0,645,0,240,0,19,323,262,449,279,206,282,0,71,0,0,0,0,0,0,0,0,0,0,0,0,0,0,0,0,0,0,0,0],"split_type":[0,0,0,0,0,0,0,0,0,0,0,0,0,0,0,0,0,0,0,0,0,0,0,0,0,0,0,0,0,0,0,0,0,0,0,0,0,0,0,0,0,0,0,0,0,0,0],"sum_hessian":[5.36E2,3.66E2,1.7E2,2.36E2,1.3E2,9.1E1,7.9E1,1.53E2,8.3E1,4.8E1,8.2E1,9E1,1E0,8E0,7.1E1,7.4E1,7.9E1,1.3E1,7E1,2.8E1,2E1,2.9E1,5.3E1,3.8E1,5.2E1,2.2E1,4.9E1,1E0,7.8E1,1E0,1.2E1,4E0,6.6E1,4E0,2.4E1,7E0,1.3E1,1.7E1,1.2E1,3.9E1,1.4E1,2.2E1,1.6E1,2.1E1,3.1E1,4.3E1,6E0],"tree_param":{"num_deleted":"0","num_feature":"660","num_nodes":"47","size_leaf_vector":"1"}},{"base_weights":[8.5850374E-4,-5.9966557E-2,1.2595972E-1,-9.245704E-2,-7.785527E-3,6.56652E-2,1.9749232E-1,-5.3584855E-3,-6.910122E-2,-3.4654804E-2,1.053988E-2,6.2233165E-2,9.878516E-3,1.5195677E-2,1.8144672E-1,-3.8800337E-3,-5.8204122E-2,-1.1544764E-2,-3.93262E-2,-7.6552886E-3,1.42882755E-2,4.3924797E-2,7.6258354E-2,7.048803E-3,1.9756609E-1,-9.7188505E-4,-2.981054E-3,2.4612E-4,-7.875534E-4,-2.1622754E-3,-7.4069406E-4,-8.5612753E-4,7.3518726E-4,-2.5703345E-4,8.4390753E-4,3.0252722E-3,1.5059378E-3,2.8994416E-3,4.321779E-3,1.0296329E-2,5.89926E-3],"categories":[],"categories_nodes":[],"categories_segments":[],"categories_sizes":[],"default_left":[0,0,0,0,0,0,0,0,0,0,0,0,0,0,0,0,0,0,0,0,0,0,0,0,0,0,0,0,0,0,0,0,0,0,0,0,0,0,0,0,0],"id":15,"left_children":[1,3,5,7,9,11,13,-1,15,17,19,21,-1,-1,23,-1,25,27,29,31,33,35,37,-1,39,-1,-1,-1,-1,-1,-1,-1,-1,-1,-1,-1,-1,-1,-1,-1,-1],"loss_changes":[4.0937414E0,6.130103E-1,7.461238E-1,6.922305E-2,6.9299914E-2,3.1616807E-2,8.146334E-2,0E0,3.7264228E-3,5.6994855E-3,5.838407E-3,2.130109E-2,0E0,0E0,1.911807E-2,0E0,1.2031198E-3,8.3945785E-4,3.8747191E-3,3.426948E-3,3.6090603E-3,8.249827E-3,4.842162E-3,0E0,8.305073E-3,0E0,0E0,0E0,0E0,0E0,0E0,0E0,0E0,0E0,0E0,0E0,0E0,0E0,0E0,0E0,0E0],"parents":[2147483647,0,0,1,1,2,2,3,3,4,4,5,5,6,6,8,8,9,9,10,10,11,11,14,14,16,16,17,17,18,18,19,19,20,20,21,21,22,22,24,24],"right_children":[2,4,6,8,10,12,14,-1,16,18,20,22,-1,-1,24,-1,26,28,30,32,34,36,38,-1,40,-1,-1,-1,-1,-1,-1,-1,-1,-1,-1,-1,-1,-1,-1,-1,-1],"split_conditions":[4.079939E-1,2.2728503E-1,5.8069533E-1,1.5347426E-1,3.1866008E-1,8.55488E-1,4.6839127E-1,-5.3584855E-3,2.0178507E-1,1.2561674E-1,3.7961572E-2,4.7210908E-1,9.878516E-3,1.5195677E-2,4.0495953E-1,-3.8800337E-3,1.8100524E-2,1.2709416E-2,6.399839E-1,8.1760764E-2,3.0963862E-1,4.6790022E-1,4.4490525E-1,7.048803E-3,7.965365E-1,-9.7188505E-4,-2.981054E-3,2.4612E-4,-7.875534E-4,-2.1622754E-3,-7.4069406E-4,-8.5612753E-4,7.3518726E-4,-2.5703345E-4,8.4390753E-4,3.0252722E-3,1.5059378E-3,2.8994416E-3,4.321779E-3,1.0296329E-2,5.89926E-3],"split_indices":[652,652,652,652,652,177,19,0,652,46,373,652,0,0,645,0,202,37,8,87,618,228,282,0,71,0,0,0,0,0,0,0,0,0,0,0,0,0,0,0,0],"split_type":[0,0,0,0,0,0,0,0,0,0,0,0,0,0,0,0,0,0,0,0,0,0,0,0,0,0,0,0,0,0,0,0,0,0,0,0,0,0,0,0,0],"sum_hessian":[5.36E2,3.61E2,1.75E2,2.22E2,1.39E2,9.6E1,7.9E1,1.34E2,8.8E1,5.6E1,8.3E1,9.5E1,1E0,8E0,7.1E1,4.6E1,4.2E1,1E1,4.6E1,1.4E1,6.9E1,4.3E1,5.2E1,2.3E1,4.8E1,2E0,4E1,2E0,8E0,3.9E1,7E0,1E1,4E0,8E0,6.1E1,1.8E1,2.5E1,2.1E1,3.1E1,4.2E1,6E0],"tree_param":{"num_deleted":"0","num_feature":"660","num_nodes":"41","size_leaf_vector":"1"}},{"base_weights":[8.973317E-4,-5.7012897E-2,1.20003045E-1,-8.541898E-2,-3.1299312E-3,6.260494E-2,1.880982E-1,-9.827977E-2,-5.688125E-2,-2.634473E-2,1.1493851E-2,5.924393E-2,9.631554E-3,1.6101474E-1,2.4124123E-1,-1.0755193E-1,-8.637242E-2,-5.7681344E-2,-9.0925646E-4,-1.6809283E-2,-3.933066E-2,1.5059361E-2,-4.4852477E-3,4.183154E-2,7.2581686E-2,5.6875194E-3,1.7131978E-1,4.407872E-3,2.5071993E-1,-1.466513E-3,-5.406022E-3,-1.6984849E-3,-4.366483E-3,-1.3122093E-3,-2.932002E-3,-1.1831545E-3,-1.4098504E-4,-8.4679853E-4,-2.3859337E-3,1.0048229E-3,2.2648045E-4,-7.269754E-4,6.509697E-4,2.7778903E-3,1.3441655E-3,3.8055659E-3,1.6123829E-3,8.65126E-3,2.4496645E-3,1.348446E-2,7.6012756E-3],"categories":[],"categories_nodes":[],"categories_segments":[],"categories_sizes":[],"default_left":[0,0,0,0,0,0,0,0,0,0,0,0,0,0,0,0,0,0,0,0,0,0,0,0,0,0,0,0,0,0,0,0,0,0,0,0,0,0,0,0,0,0,0,0,0,0,0,0,0,0,0],"id":16,"left_children":[1,3,5,7,9,11,13,15,17,19,21,23,-1,25,27,29,31,33,-1,35,37,39,41,43,45,-1,47,-1,49,-1,-1,-1,-1,-1,-1,-1,-1,-1,-1,-1,-1,-1,-1,-1,-1,-1,-1,-1,-1,-1,-1],"loss_changes":[3.7107663E0,5.538113E-1,6.7612576E-1,8.1392884E-2,4.307831E-2,3.097865E-2,7.630038E-2,8.59642E-3,1.3040602E-3,5.406387E-3,4.5114886E-3,1.9259036E-2,0E0,7.7878237E-3,1.4173269E-2,6.9761276E-4,8.457303E-4,6.9127977E-4,0E0,2.809734E-3,2.9487778E-3,3.3034906E-3,2.8292383E-3,7.534489E-3,5.090922E-3,0E0,7.021427E-4,0E0,2.0599365E-3,0E0,0E0,0E0,0E0,0E0,0E0,0E0,0E0,0E0,0E0,0E0,0E0,0E0,0E0,0E0,0E0,0E0,0E0,0E0,0E0,0E0,0E0],"parents":[2147483647,0,0,1,1,2,2,3,3,4,4,5,5,6,6,7,7,8,8,9,9,10,10,11,11,13,13,14,14,15,15,16,16,17,17,19,19,20,20,21,21,22,22,23,23,24,24,26,26,28,28],"right_children":[2,4,6,8,10,12,14,16,18,20,22,24,-1,26,28,30,32,34,-1,36,38,40,42,44,46,-1,48,-1,50,-1,-1,-1,-1,-1,-1,-1,-1,-1,-1,-1,-1,-1,-1,-1,-1,-1,-1,-1,-1,-1,-1],"split_conditions":[4.079939E-1,2.496688E-1,5.8069533E-1,1.8102261E-1,3.243833E-1,8.55488E-1,8.3836657E-1,1.2225238E-1,3.041055E-1,9.9206194E-2,6.449777E-1,4.7210908E-1,9.631554E-3,3.4475628E-1,1.7801884E-1,8.692192E-2,4.7225848E-1,1.6439569E-1,-9.0925646E-4,2.690253E-1,2.1988288E-1,2.7583012E-1,5.810588E-1,4.6839127E-1,1.2624562E-1,5.6875194E-3,7.915903E-1,4.407872E-3,7.3102534E-1,-1.466513E-3,-5.406022E-3,-1.6984849E-3,-4.366483E-3,-1.3122093E-3,-2.932002E-3,-1.1831545E-3,-1.4098504E-4,-8.4679853E-4,-2.3859337E-3,1.0048229E-3,2.2648045E-4,-7.269754E-4,6.509697E-4,2.7778903E-3,1.3441655E-3,3.8055659E-3,1.6123829E-3,8.65126E-3,2.4496645E-3,1.348446E-2,7.6012756E-3],"split_indices":[652,652,652,652,650,177,652,650,317,224,381,652,0,557,196,359,349,284,0,515,262,64,535,206,76,0,5,0,486,0,0,0,0,0,0,0,0,0,0,0,0,0,0,0,0,0,0,0,0,0,0],"split_type":[0,0,0,0,0,0,0,0,0,0,0,0,0,0,0,0,0,0,0,0,0,0,0,0,0,0,0,0,0,0,0,0,0,0,0,0,0,0,0,0,0,0,0,0,0,0,0,0,0,0,0],"sum_hessian":[5.36E2,3.61E2,1.75E2,2.36E2,1.25E2,9.6E1,7.9E1,1.61E2,7.5E1,4.8E1,7.7E1,9.5E1,1E0,5.5E1,2.4E1,8.6E1,7.5E1,7.3E1,2E0,2.9E1,1.9E1,6.3E1,1.4E1,4.3E1,5.2E1,1.2E1,4.3E1,2E0,2.2E1,1E0,8.5E1,2E0,7.3E1,3E0,7E1,1.9E1,1E1,6E0,1.3E1,4.2E1,2.1E1,9E0,5E0,2.1E1,2.2E1,4.7E1,5E0,4.2E1,1E0,1.7E1,5E0],"tree_param":{"num_deleted":"0","num_feature":"660","num_nodes":"51","size_leaf_vector":"1"}},{"base_weights":[9.268813E-4,-5.422162E-2,1.14352055E-1,-8.3604924E-2,-7.0309094E-3,5.9672326E-2,1.7922181E-1,-9.688374E-2,-6.252353E-2,-3.457593E-2,7.716233E-3,5.6381095E-2,9.390764E-3,1.3921003E-2,1.6433284E-1,-5.39197E-3,-4.479985E-3,-3.5121832E-3,-5.263121E-2,-3.6550514E-2,-3.2242462E-3,-4.0491187E-4,1.7393904E-2,3.9833635E-2,6.905481E-2,6.680397E-3,9.154904E-3,-8.7546755E-4,-2.6958706E-3,-1.9787138E-3,-7.0252054E-4,2.5157482E-4,-3.826663E-4,2.04866E-3,-1.9223262E-4,-4.5216748E-5,1.0862985E-3,2.7503853E-3,1.3606416E-3,2.5893985E-3,3.9383904E-3],"categories":[],"categories_nodes":[],"categories_segments":[],"categories_sizes":[],"default_left":[0,0,0,0,0,0,0,0,0,0,0,0,0,0,0,0,0,0,0,0,0,0,0,0,0,0,0,0,0,0,0,0,0,0,0,0,0,0,0,0,0],"id":17,"left_children":[1,3,5,7,9,11,13,15,17,19,21,23,-1,-1,25,-1,-1,-1,27,29,31,33,35,37,39,-1,-1,-1,-1,-1,-1,-1,-1,-1,-1,-1,-1,-1,-1,-1,-1],"loss_changes":[3.365258E0,5.0136817E-1,6.135881E-1,5.636823E-2,5.7136245E-2,3.0320317E-2,7.240319E-2,1.1109114E-3,3.0999184E-3,2.9155724E-3,7.237669E-3,1.7382234E-2,0E0,0E0,1.7048955E-2,0E0,0E0,0E0,9.98415E-4,2.573561E-3,1.8476903E-4,7.4163564E-3,3.348953E-3,6.9294795E-3,4.8095584E-3,0E0,0E0,0E0,0E0,0E0,0E0,0E0,0E0,0E0,0E0,0E0,0E0,0E0,0E0,0E0,0E0],"parents":[2147483647,0,0,1,1,2,2,3,3,4,4,5,5,6,6,7,7,8,8,9,9,10,10,11,11,14,14,18,18,19,19,20,20,21,21,22,22,23,23,24,24],"right_children":[2,4,6,8,10,12,14,16,18,20,22,24,-1,-1,26,-1,-1,-1,28,30,32,34,36,38,40,-1,-1,-1,-1,-1,-1,-1,-1,-1,-1,-1,-1,-1,-1,-1,-1],"split_conditions":[4.079939E-1,2.2728503E-1,5.8069533E-1,1.5347426E-1,3.0198336E-1,8.55488E-1,4.6839127E-1,1.0627468E-1,1.9253843E-1,6.5471095E-1,3.546112E-1,4.7210908E-1,9.390764E-3,1.3921003E-2,7.266489E-1,-5.39197E-3,-4.479985E-3,-3.5121832E-3,1.8100524E-2,7.293651E-2,1.0187409E-1,1.8017817E-2,3.5839297E-2,4.6790022E-1,4.4490525E-1,6.680397E-3,9.154904E-3,-8.7546755E-4,-2.6958706E-3,-1.9787138E-3,-7.0252054E-4,2.5157482E-4,-3.826663E-4,2.04866E-3,-1.9223262E-4,-4.5216748E-5,1.0862985E-3,2.7503853E-3,1.3606416E-3,2.5893985E-3,3.9383904E-3],"split_indices":[652,652,652,652,652,177,19,652,650,656,650,652,0,0,652,0,0,0,202,609,0,147,257,228,282,0,0,0,0,0,0,0,0,0,0,0,0,0,0,0,0],"split_type":[0,0,0,0,0,0,0,0,0,0,0,0,0,0,0,0,0,0,0,0,0,0,0,0,0,0,0,0,0,0,0,0,0,0,0,0,0,0,0,0,0],"sum_hessian":[5.36E2,3.61E2,1.75E2,2.22E2,1.39E2,9.6E1,7.9E1,1.34E2,8.8E1,4.8E1,9.1E1,9.5E1,1E0,8E0,7.1E1,4.8E1,8.6E1,4.6E1,4.2E1,4.5E1,3E0,5E1,4.1E1,4.3E1,5.2E1,3E1,4.1E1,2E0,4E1,3.9E1,6E0,1E0,2E0,3E0,4.7E1,8E0,3.3E1,1.8E1,2.5E1,2.1E1,3.1E1],"tree_param":{"num_deleted":"0","num_feature":"660","num_nodes":"41","size_leaf_vector":"1"}},{"base_weights":[9.418323E-4,-5.001822E-2,1.1220407E-1,-7.7251084E-2,-1.1144102E-3,5.902081E-2,1.7063268E-1,-8.888438E-2,-5.1437322E-2,-2.3933457E-2,1.205321E-2,5.5568915E-2,9.155995E-3,1.3302291E-2,1.5633614E-1,-4.939389E-3,-7.943395E-2,-3.5899777E-2,-5.4073643E-2,-1.5106144E-2,-3.5977755E-2,6.8207895E-3,2.7674833E-2,4.334126E-2,6.946426E-2,6.0104574E-3,1.7084046E-1,-1.8025221E-3,-4.0270505E-3,-4.9331936E-4,-1.8571698E-3,-2.7295419E-3,-5.5019185E-4,-1.0714097E-3,-1.1191111E-4,-7.603415E-4,-2.1896688E-3,5.523926E-4,-6.3846953E-4,1.5060765E-3,1.4770776E-4,2.6375775E-3,1.0023712E-3,1.6448373E-3,3.7474898E-3,8.91837E-3,5.0098863E-3],"categories":[],"categories_nodes":[],"categories_segments":[],"categories_sizes":[],"default_left":[0,0,0,0,0,0,0,0,0,0,0,0,0,0,0,0,0,0,0,0,0,0,0,0,0,0,0,0,0,0,0,0,0,0,0,0,0,0,0,0,0,0,0,0,0,0,0],"id":18,"left_children":[1,3,5,7,9,11,13,15,17,19,21,23,-1,-1,25,-1,27,29,31,33,35,37,39,41,43,-1,45,-1,-1,-1,-1,-1,-1,-1,-1,-1,-1,-1,-1,-1,-1,-1,-1,-1,-1,-1,-1],"loss_changes":[3.0503643E0,4.913447E-1,5.15084E-1,6.659901E-2,4.0251322E-2,2.8378189E-2,6.753349E-2,7.314801E-3,1.1718869E-3,4.6661347E-3,6.759042E-3,1.2111098E-2,0E0,0E0,1.719129E-2,0E0,1.3229251E-3,8.6786225E-5,8.0263615E-4,2.3925882E-3,2.5807936E-3,5.5236537E-3,1.1811797E-3,9.902552E-3,5.5581033E-3,0E0,8.182526E-3,0E0,0E0,0E0,0E0,0E0,0E0,0E0,0E0,0E0,0E0,0E0,0E0,0E0,0E0,0E0,0E0,0E0,0E0,0E0,0E0],"parents":[2147483647,0,0,1,1,2,2,3,3,4,4,5,5,6,6,7,7,8,8,9,9,10,10,11,11,14,14,16,16,17,17,18,18,19,19,20,20,21,21,22,22,23,23,24,24,26,26],"right_children":[2,4,6,8,10,12,14,16,18,20,22,24,-1,-1,26,-1,28,30,32,34,36,38,40,42,44,-1,46,-1,-1,-1,-1,-1,-1,-1,-1,-1,-1,-1,-1,-1,-1,-1,-1,-1,-1,-1,-1],"split_conditions":[3.9957136E-1,2.496688E-1,5.8069533E-1,1.8102261E-1,3.243833E-1,8.55488E-1,4.6839127E-1,1.15581624E-1,4.697219E-1,9.9206194E-2,4.6168017E-1,4.91065E-1,9.155995E-3,1.3302291E-2,4.0495953E-1,-4.939389E-3,4.7225848E-1,1.5914114E-2,5.219214E-1,2.690253E-1,2.1988288E-1,5.792306E-1,3.1103793E-1,4.887402E-1,2.1444428E-1,6.0104574E-3,7.954876E-1,-1.8025221E-3,-4.0270505E-3,-4.9331936E-4,-1.8571698E-3,-2.7295419E-3,-5.5019185E-4,-1.0714097E-3,-1.1191111E-4,-7.603415E-4,-2.1896688E-3,5.523926E-4,-6.3846953E-4,1.5060765E-3,1.4770776E-4,2.6375775E-3,1.0023712E-3,1.6448373E-3,3.7474898E-3,8.91837E-3,5.0098863E-3],"split_indices":[650,652,652,652,650,177,19,652,591,224,485,652,0,0,645,0,349,0,138,515,262,327,262,195,416,0,60,0,0,0,0,0,0,0,0,0,0,0,0,0,0,0,0,0,0,0,0],"split_type":[0,0,0,0,0,0,0,0,0,0,0,0,0,0,0,0,0,0,0,0,0,0,0,0,0,0,0,0,0,0,0,0,0,0,0,0,0,0,0,0,0,0,0,0,0,0,0],"sum_hessian":[5.36E2,3.68E2,1.68E2,2.36E2,1.32E2,8.9E1,7.9E1,1.61E2,7.5E1,4.8E1,8.4E1,8.8E1,1E0,8E0,7.1E1,7.4E1,8.7E1,1.3E1,6.2E1,2.9E1,1.9E1,6.4E1,2E1,4.9E1,3.9E1,2.3E1,4.8E1,3E0,8.4E1,1E0,1.2E1,6.1E1,1E0,1.9E1,1E1,6E0,1.3E1,5.3E1,1.1E1,1.8E1,2E0,3.4E1,1.5E1,6E0,3.3E1,4.2E1,6E0],"tree_param":{"num_deleted":"0","num_feature":"660","num_nodes":"47","size_leaf_vector":"1"}},{"base_weights":[9.551984E-4,-4.7568705E-2,1.0689819E-1,-7.3457725E-2,-1.0779788E-3,6.554274E-2,1.7544E-1,-8.450664E-2,-4.8939545E-2,-2.2821134E-2,1.1468993E-2,5.10138E-2,9.800077E-2,1.271108E-2,1.5935865E-1,-9.201737E-2,-7.332086E-2,-3.4249358E-2,-5.142721E-2,-1.4390274E-2,-3.4326367E-2,6.478429E-3,2.6369832E-2,4.6932865E-2,8.927095E-3,3.1963398E-3,5.3347577E-3,1.660164E-1,5.344194E-3,-1.2727876E-3,-4.6232087E-3,-1.4647119E-3,-3.709248E-3,-7.1280845E-4,-1.8196771E-3,-2.5955297E-3,-5.364373E-4,3.2300205E-4,-8.923239E-4,-1.9000488E-3,-4.1830044E-5,5.252848E-4,-6.09207E-4,1.500494E-3,4.3598562E-4,2.4805896E-3,3.9282837E-4,3.4960897E-3,8.436672E-3],"categories":[],"categories_nodes":[],"categories_segments":[],"categories_sizes":[],"default_left":[0,0,0,0,0,0,0,0,0,0,0,0,0,0,0,0,0,0,0,0,0,0,0,0,0,0,0,0,0,0,0,0,0,0,0,0,0,0,0,0,0,0,0,0,0,0,0,0,0],"id":19,"left_children":[1,3,5,7,9,11,13,15,17,19,21,23,25,-1,27,29,31,33,35,37,39,41,43,45,-1,-1,-1,47,-1,-1,-1,-1,-1,-1,-1,-1,-1,-1,-1,-1,-1,-1,-1,-1,-1,-1,-1,-1,-1],"loss_changes":[2.765677E0,4.44049E-1,4.675448E-1,6.0067415E-2,3.6545563E-2,4.5459777E-2,3.9303303E-2,6.8633556E-3,1.0160208E-3,4.2589847E-3,6.1500687E-3,3.1173468E-2,2.6594102E-3,0E0,1.4703274E-3,4.121065E-4,4.8983097E-4,8.133426E-5,6.824434E-4,2.2771778E-3,2.4294425E-3,5.0133476E-3,1.0875156E-3,7.4614286E-3,0E0,0E0,0E0,4.733801E-4,0E0,0E0,0E0,0E0,0E0,0E0,0E0,0E0,0E0,0E0,0E0,0E0,0E0,0E0,0E0,0E0,0E0,0E0,0E0,0E0,0E0],"parents":[2147483647,0,0,1,1,2,2,3,3,4,4,5,5,6,6,7,7,8,8,9,9,10,10,11,11,12,12,14,14,15,15,16,16,17,17,18,18,19,19,20,20,21,21,22,22,23,23,27,27],"right_children":[2,4,6,8,10,12,14,16,18,20,22,24,26,-1,28,30,32,34,36,38,40,42,44,46,-1,-1,-1,48,-1,-1,-1,-1,-1,-1,-1,-1,-1,-1,-1,-1,-1,-1,-1,-1,-1,-1,-1,-1,-1],"split_conditions":[3.9957136E-1,2.496688E-1,6.8270314E-1,1.8102261E-1,3.243833E-1,5.363093E-1,4.6839127E-1,1.2750067E-1,4.673738E-1,9.9206194E-2,4.6168017E-1,8.459124E-1,1.15404114E-1,1.271108E-2,1.21649526E-1,8.692192E-2,4.7225848E-1,3.572548E-1,5.219214E-1,3.6851197E-2,4.1821924E-1,5.792306E-1,2.900186E-1,5.894493E-1,8.927095E-3,3.1963398E-3,5.3347577E-3,6.299454E-2,5.344194E-3,-1.2727876E-3,-4.6232087E-3,-1.4647119E-3,-3.709248E-3,-7.1280845E-4,-1.8196771E-3,-2.5955297E-3,-5.364373E-4,3.2300205E-4,-8.923239E-4,-1.9000488E-3,-4.1830044E-5,5.252848E-4,-6.09207E-4,1.500494E-3,4.3598562E-4,2.4805896E-3,3.9282837E-4,3.4960897E-3,8.436672E-3],"split_indices":[650,652,652,652,650,652,19,652,580,224,485,157,543,0,351,359,349,310,138,323,568,327,262,227,0,0,0,532,0,0,0,0,0,0,0,0,0,0,0,0,0,0,0,0,0,0,0,0,0],"split_type":[0,0,0,0,0,0,0,0,0,0,0,0,0,0,0,0,0,0,0,0,0,0,0,0,0,0,0,0,0,0,0,0,0,0,0,0,0,0,0,0,0,0,0,0,0,0,0,0,0],"sum_hessian":[5.36E2,3.68E2,1.68E2,2.36E2,1.32E2,1.06E2,6.2E1,1.61E2,7.5E1,4.8E1,8.4E1,7.5E1,3.1E1,8E0,5.4E1,9.2E1,6.9E1,1.3E1,6.2E1,2.9E1,1.9E1,6.4E1,2E1,7.4E1,1E0,8E0,2.3E1,4.6E1,8E0,1E0,9.1E1,2E0,6.7E1,2E0,1.1E1,6.1E1,1E0,4E0,2.5E1,1.7E1,2E0,5.3E1,1.1E1,1.6E1,4E0,6.9E1,5E0,2E0,4.4E1],"tree_param":{"num_deleted":"0","num_feature":"660","num_nodes":"49","size_leaf_vector":"1"}},{"base_weights":[9.687516E-4,-4.664962E-2,9.890558E-2,-7.188851E-2,-6.114462E-3,5.1746342E-2,1.5484983E-1,-8.4252864E-2,-5.4959003E-2,-2.7259331E-2,8.306633E-3,4.8658736E-2,8.703917E-3,1.3145304E-1,2.0106465E-1,-4.6595014E-3,-3.8821541E-3,-3.1001195E-3,-4.544214E-2,-3.0034384E-2,-3.1468954E-3,-7.272919E-3,1.1526442E-2,3.4176007E-2,5.9764046E-2,4.1946755E-3,1.3877521E-1,3.5288245E-3,2.0934291E-1,-7.3743163E-4,-2.3263379E-3,-7.804723E-4,-1.6585973E-3,-3.6103727E-4,2.3459096E-4,4.644955E-4,-8.241663E-4,4.4505027E-4,1.4166035E-3,2.3776642E-3,1.1542921E-3,3.1512917E-3,1.1854548E-3,7.0645413E-3,2.7391226E-3,1.1297514E-2,6.2315166E-3],"categories":[],"categories_nodes":[],"categories_segments":[],"categories_sizes":[],"default_left":[0,0,0,0,0,0,0,0,0,0,0,0,0,0,0,0,0,0,0,0,0,0,0,0,0,0,0,0,0,0,0,0,0,0,0,0,0,0,0,0,0,0,0,0,0,0,0],"id":20,"left_children":[1,3,5,7,9,11,13,15,17,19,21,23,-1,25,27,-1,-1,-1,29,31,33,35,37,39,41,-1,43,-1,45,-1,-1,-1,-1,-1,-1,-1,-1,-1,-1,-1,-1,-1,-1,-1,-1,-1,-1],"loss_changes":[2.5089629E0,3.6990905E-1,4.5632565E-1,4.2048335E-2,4.2916935E-2,2.8167754E-2,6.0071707E-2,2.6673079E-4,3.6844611E-3,3.719546E-3,4.297538E-3,1.3397679E-2,0E0,7.859051E-3,1.2230635E-2,0E0,0E0,0E0,8.1187487E-4,1.7904118E-3,2.5741465E-4,2.4413844E-3,2.8363625E-3,5.4298677E-3,4.7386885E-3,0E0,2.19059E-3,0E0,4.197359E-3,0E0,0E0,0E0,0E0,0E0,0E0,0E0,0E0,0E0,0E0,0E0,0E0,0E0,0E0,0E0,0E0,0E0,0E0],"parents":[2147483647,0,0,1,1,2,2,3,3,4,4,5,5,6,6,7,7,8,8,9,9,10,10,11,11,13,13,14,14,18,18,19,19,20,20,21,21,22,22,23,23,24,24,26,26,28,28],"right_children":[2,4,6,8,10,12,14,16,18,20,22,24,-1,26,28,-1,-1,-1,30,32,34,36,38,40,42,-1,44,-1,46,-1,-1,-1,-1,-1,-1,-1,-1,-1,-1,-1,-1,-1,-1,-1,-1,-1,-1],"split_conditions":[4.079939E-1,2.2728503E-1,5.8069533E-1,1.475051E-1,3.1866008E-1,8.55488E-1,8.3836657E-1,1.0627468E-1,2.0078214E-1,6.320759E-1,3.7961572E-2,4.7210908E-1,8.703917E-3,2.776458E-1,1.7801884E-1,-4.6595014E-3,-3.8821541E-3,-3.1001195E-3,1.8100524E-2,1.3636433E-1,5.1426373E-2,3.9005365E-2,5.1323444E-1,4.6790022E-1,1.2624562E-1,4.1946755E-3,1.7244421E-1,3.5288245E-3,7.3102534E-1,-7.3743163E-4,-2.3263379E-3,-7.804723E-4,-1.6585973E-3,-3.6103727E-4,2.3459096E-4,4.644955E-4,-8.241663E-4,4.4505027E-4,1.4166035E-3,2.3776642E-3,1.1542921E-3,3.1512917E-3,1.1854548E-3,7.0645413E-3,2.7391226E-3,1.1297514E-2,6.2315166E-3],"split_indices":[652,652,652,652,652,177,652,652,652,634,373,652,0,568,196,0,0,0,202,3,21,186,111,228,76,0,120,0,486,0,0,0,0,0,0,0,0,0,0,0,0,0,0,0,0,0,0],"split_type":[0,0,0,0,0,0,0,0,0,0,0,0,0,0,0,0,0,0,0,0,0,0,0,0,0,0,0,0,0,0,0,0,0,0,0,0,0,0,0,0,0,0,0,0,0,0,0],"sum_hessian":[5.36E2,3.61E2,1.75E2,2.22E2,1.39E2,9.6E1,7.9E1,1.26E2,9.6E1,5.6E1,8.3E1,9.5E1,1E0,5.5E1,2.4E1,4.8E1,7.8E1,5.2E1,4.4E1,5E1,6E0,1.4E1,6.9E1,4.3E1,5.2E1,9E0,4.6E1,2E0,2.2E1,2E0,4.2E1,1E1,4E1,4E0,2E0,5E0,9E0,6.1E1,8E0,1.8E1,2.5E1,4.7E1,5E0,4.4E1,2E0,1.7E1,5E0],"tree_param":{"num_deleted":"0","num_feature":"660","num_nodes":"47","size_leaf_vector":"1"}},{"base_weights":[9.870932E-4,-4.4360697E-2,9.4253644E-2,-6.725379E-2,-3.961716E-3,4.9329873E-2,1.4754555E-1,-7.926858E-2,-4.9838834E-2,-2.4230989E-2,7.909191E-3,4.630776E-2,8.48632E-3,1.9816497E-1,1.2736966E-1,-4.431281E-3,-3.6543706E-3,-5.743113E-2,-4.186478E-2,-2.90702E-2,-8.593926E-3,2.509472E-3,1.6605312E-2,3.2547474E-2,5.6857664E-2,2.7163716E-3,1.0132025E-2,4.9908953E-3,7.2751413E-3,-2.9354908E-3,-1.4503923E-3,-6.17528E-4,-2.1408696E-3,-1.2050518E-3,-2.0925968E-3,-2.8104656E-5,-7.699028E-4,1.914733E-3,-2.017662E-5,1.1083301E-3,2.7446388E-4,2.8417185E-3,1.3208295E-3,2.0523875E-3,3.297509E-3],"categories":[],"categories_nodes":[],"categories_segments":[],"categories_sizes":[],"default_left":[0,0,0,0,0,0,0,0,0,0,0,0,0,0,0,0,0,0,0,0,0,0,0,0,0,0,0,0,0,0,0,0,0,0,0,0,0,0,0,0,0,0,0,0,0],"id":21,"left_children":[1,3,5,7,9,11,13,15,17,19,21,23,-1,25,27,-1,-1,29,31,33,35,37,39,41,43,-1,-1,-1,-1,-1,-1,-1,-1,-1,-1,-1,-1,-1,-1,-1,-1,-1,-1,-1,-1],"loss_changes":[2.275386E0,3.3453214E-1,4.1407835E-1,4.438305E-2,3.195278E-2,2.7433991E-2,5.646324E-2,1.3306141E-3,3.4681708E-3,3.4580566E-3,3.902684E-3,1.2085706E-2,0E0,2.5097132E-3,1.5452266E-2,0E0,0E0,5.1259995E-6,9.050667E-4,1.3413616E-3,7.0179004E-4,5.5403E-3,1.8565459E-3,5.0502345E-3,4.9117357E-3,0E0,0E0,0E0,0E0,0E0,0E0,0E0,0E0,0E0,0E0,0E0,0E0,0E0,0E0,0E0,0E0,0E0,0E0,0E0,0E0],"parents":[2147483647,0,0,1,1,2,2,3,3,4,4,5,5,6,6,7,7,8,8,9,9,10,10,11,11,13,13,14,14,17,17,18,18,19,19,20,20,21,21,22,22,23,23,24,24],"right_children":[2,4,6,8,10,12,14,16,18,20,22,24,-1,26,28,-1,-1,30,32,34,36,38,40,42,44,-1,-1,-1,-1,-1,-1,-1,-1,-1,-1,-1,-1,-1,-1,-1,-1,-1,-1,-1,-1],"split_conditions":[4.079939E-1,2.3831649E-1,5.8069533E-1,1.5347426E-1,3.1866008E-1,8.55488E-1,1.1761727E-1,1.0627468E-1,1.9253843E-1,4.6235004E-1,3.7778178E-1,4.7210908E-1,8.48632E-3,8.885183E-2,6.5027297E-1,-4.431281E-3,-3.6543706E-3,1.2534569E-1,2.4780361E-2,4.734315E-1,5.3110376E-2,1.8017817E-2,6.002854E-2,2.134388E-1,4.4490525E-1,2.7163716E-3,1.0132025E-2,4.9908953E-3,7.2751413E-3,-2.9354908E-3,-1.4503923E-3,-6.17528E-4,-2.1408696E-3,-1.2050518E-3,-2.0925968E-3,-2.8104656E-5,-7.699028E-4,1.914733E-3,-2.017662E-5,1.1083301E-3,2.7446388E-4,2.8417185E-3,1.3208295E-3,2.0523875E-3,3.297509E-3],"split_indices":[652,652,652,652,652,177,236,652,650,546,652,652,0,1,73,0,0,648,180,503,274,147,417,260,282,0,0,0,0,0,0,0,0,0,0,0,0,0,0,0,0,0,0,0,0],"split_type":[0,0,0,0,0,0,0,0,0,0,0,0,0,0,0,0,0,0,0,0,0,0,0,0,0,0,0,0,0,0,0,0,0,0,0,0,0,0,0,0,0,0,0,0,0],"sum_hessian":[5.36E2,3.61E2,1.75E2,2.3E2,1.31E2,9.6E1,7.9E1,1.34E2,9.6E1,4.8E1,8.3E1,9.5E1,1E0,2E1,5.9E1,4.8E1,8.6E1,4.6E1,5E1,3.6E1,1.2E1,5.2E1,3.1E1,4.3E1,5.2E1,1E0,1.9E1,2.6E1,3.3E1,4.3E1,3E0,2E0,4.8E1,2.8E1,8E0,6E0,6E0,3E0,4.9E1,2E1,1.1E1,7E0,3.6E1,2.1E1,3.1E1],"tree_param":{"num_deleted":"0","num_feature":"660","num_nodes":"45","size_leaf_vector":"1"}},{"base_weights":[9.881399E-4,-4.218699E-2,8.978592E-2,-6.5689296E-2,-6.5615517E-3,5.470458E-2,1.5184127E-1,-7.6188244E-2,-5.048216E-2,-2.796837E-2,6.0746414E-3,4.826236E-2,1.1687742E-1,1.1193718E-2,1.372933E-1,-1.0525547E-3,-3.8229383E-3,-5.60862E-2,-4.179475E-2,-1.1755434E-2,-3.0949725E-2,-9.426244E-3,9.462015E-3,3.7835546E-2,7.698295E-2,1.4626425E-3,6.756348E-3,3.6791645E-3,1.4084734E-1,-2.8608886E-3,-1.3960026E-3,-6.6687714E-4,-2.1470755E-3,-2.2326783E-5,-8.2691567E-4,-1.6340628E-3,-2.515603E-4,-7.1473303E-4,2.558446E-4,9.5852854E-4,1.6996516E-4,2.2383274E-3,1.2170933E-3,3.9847554E-3,1.4360354E-3,4.2785597E-3,7.315796E-3],"categories":[],"categories_nodes":[],"categories_segments":[],"categories_sizes":[],"default_left":[0,0,0,0,0,0,0,0,0,0,0,0,0,0,0,0,0,0,0,0,0,0,0,0,0,0,0,0,0,0,0,0,0,0,0,0,0,0,0,0,0,0,0,0,0,0,0],"id":22,"left_children":[1,3,5,7,9,11,13,15,17,19,21,23,25,-1,27,-1,-1,29,31,33,35,37,39,41,43,-1,-1,-1,45,-1,-1,-1,-1,-1,-1,-1,-1,-1,-1,-1,-1,-1,-1,-1,-1,-1,-1],"loss_changes":[2.0625684E0,3.0266428E-1,3.7484312E-1,3.0959487E-2,3.9392497E-2,4.001978E-2,3.5283566E-2,2.847314E-4,2.1348596E-3,2.2463463E-3,4.9198614E-3,2.853106E-2,1.2038216E-2,0E0,2.0896196E-3,0E0,0E0,9.1686845E-5,7.326156E-4,5.3350604E-4,1.8551201E-3,1.2767793E-3,4.408208E-3,6.2987506E-3,1.2452453E-3,0E0,0E0,0E0,2.895832E-3,0E0,0E0,0E0,0E0,0E0,0E0,0E0,0E0,0E0,0E0,0E0,0E0,0E0,0E0,0E0,0E0,0E0,0E0],"parents":[2147483647,0,0,1,1,2,2,3,3,4,4,5,5,6,6,7,7,8,8,9,9,10,10,11,11,12,12,14,14,17,17,18,18,19,19,20,20,21,21,22,22,23,23,24,24,28,28],"right_children":[2,4,6,8,10,12,14,16,18,20,22,24,26,-1,28,-1,-1,30,32,34,36,38,40,42,44,-1,-1,-1,46,-1,-1,-1,-1,-1,-1,-1,-1,-1,-1,-1,-1,-1,-1,-1,-1,-1,-1],"split_conditions":[4.079939E-1,2.2321145E-1,6.8270314E-1,1.475051E-1,3.0198336E-1,6.125525E-1,4.6839127E-1,8.692192E-2,2.0078214E-1,1.3381103E-1,2.8616366E-1,5.363093E-1,4.5864362E-2,1.1193718E-2,7.375682E-2,-1.0525547E-3,-3.8229383E-3,1.3280722E-1,1.8100524E-2,1.2537466E-1,7.0620906E-1,2.9607376E-1,4.880333E-1,4.8648304E-1,3.3678237E-1,1.4626425E-3,6.756348E-3,3.6791645E-3,1.0207956E-1,-2.8608886E-3,-1.3960026E-3,-6.6687714E-4,-2.1470755E-3,-2.2326783E-5,-8.2691567E-4,-1.6340628E-3,-2.515603E-4,-7.1473303E-4,2.558446E-4,9.5852854E-4,1.6996516E-4,2.2383274E-3,1.2170933E-3,3.9847554E-3,1.4360354E-3,4.2785597E-3,7.315796E-3],"split_indices":[652,652,652,652,652,62,19,359,652,133,606,652,21,0,642,0,0,648,202,67,8,658,304,140,592,0,0,0,68,0,0,0,0,0,0,0,0,0,0,0,0,0,0,0,0,0,0],"split_type":[0,0,0,0,0,0,0,0,0,0,0,0,0,0,0,0,0,0,0,0,0,0,0,0,0,0,0,0,0,0,0,0,0,0,0,0,0,0,0,0,0,0,0,0,0,0,0],"sum_hessian":[5.36E2,3.61E2,1.75E2,2.17E2,1.44E2,1.13E2,6.2E1,1.26E2,9.1E1,5.3E1,9.1E1,1.04E2,9E0,8E0,5.4E1,1E0,1.25E2,5.2E1,3.9E1,9E0,4.4E1,1.6E1,7.5E1,7.8E1,2.6E1,2E0,7E0,4E0,5E1,4.9E1,3E0,2E0,3.7E1,3E0,6E0,4.1E1,3E0,1.2E1,4E0,2.8E1,4.7E1,5E1,2.8E1,2.4E1,2E0,6E0,4.4E1],"tree_param":{"num_deleted":"0","num_feature":"660","num_nodes":"47","size_leaf_vector":"1"}},{"base_weights":[9.937605E-4,-3.9780088E-2,8.628507E-2,-6.0080633E-2,-1.8815763E-3,5.2673522E-2,1.4466931E-1,-7.0238255E-2,-4.2083777E-2,-1.8926447E-2,8.581927E-3,4.0921103E-2,8.077578E-2,1.069622E-2,1.3070631E-1,-8.0539845E-2,-6.460084E-2,-4.657189E-2,-3.3585835E-2,-1.1795415E-2,-2.9565161E-2,1.4019831E-2,-1.4647256E-3,3.665711E-2,6.9782953E-3,6.212726E-2,4.777068E-3,3.442768E-3,1.3420726E-1,-4.088904E-3,-1.7147169E-3,-3.257685E-3,-1.2319152E-3,-2.3799767E-3,-6.446476E-4,-6.1728904E-4,-1.7263767E-3,3.0082135E-4,-7.3285185E-4,-1.7450814E-3,-6.0929434E-4,2.75778E-4,1.1155983E-3,-4.560089E-4,5.070257E-4,2.0632385E-3,7.9677097E-4,3.1856627E-3,9.1878476E-4,6.9051855E-3,3.5369657E-3],"categories":[],"categories_nodes":[],"categories_segments":[],"categories_sizes":[],"default_left":[0,0,0,0,0,0,0,0,0,0,0,0,0,0,0,0,0,0,0,0,0,0,0,0,0,0,0,0,0,0,0,0,0,0,0,0,0,0,0,0,0,0,0,0,0,0,0,0,0,0,0],"id":23,"left_children":[1,3,5,7,9,11,13,15,17,19,21,23,25,-1,27,29,31,33,35,37,39,41,43,45,-1,47,-1,-1,49,-1,-1,-1,-1,-1,-1,-1,-1,-1,-1,-1,-1,-1,-1,-1,-1,-1,-1,-1,-1,-1,-1],"loss_changes":[1.8709329E0,2.7993417E-1,3.3383477E-1,4.0368974E-2,2.2991106E-2,3.368473E-2,3.2960176E-2,3.5082102E-3,1.7921478E-3,3.3686515E-3,4.391154E-3,2.8954193E-2,2.8756708E-3,0E0,2.6686192E-3,1.3411045E-6,6.482601E-4,1.2898445E-3,2.537854E-4,1.6682767E-3,1.3368279E-3,3.5439013E-3,2.6689405E-3,6.8852305E-3,0E0,8.85129E-6,0E0,0E0,2.8429031E-3,0E0,0E0,0E0,0E0,0E0,0E0,0E0,0E0,0E0,0E0,0E0,0E0,0E0,0E0,0E0,0E0,0E0,0E0,0E0,0E0,0E0,0E0],"parents":[2147483647,0,0,1,1,2,2,3,3,4,4,5,5,6,6,7,7,8,8,9,9,10,10,11,11,12,12,14,14,15,15,16,16,17,17,18,18,19,19,20,20,21,21,22,22,23,23,25,25,28,28],"right_children":[2,4,6,8,10,12,14,16,18,20,22,24,26,-1,28,30,32,34,36,38,40,42,44,46,-1,48,-1,-1,50,-1,-1,-1,-1,-1,-1,-1,-1,-1,-1,-1,-1,-1,-1,-1,-1,-1,-1,-1,-1,-1,-1],"split_conditions":[3.929837E-1,2.496688E-1,6.8270314E-1,1.657607E-1,3.243833E-1,5.363093E-1,4.6839127E-1,1.0627468E-1,2.1771292E-1,9.8636836E-2,2.7583012E-1,8.0350673E-1,1.5470083E-1,1.069622E-2,7.7517115E-2,1.7876837E-1,3.460378E-1,3.0382493E-1,2.0474263E-1,3.6851197E-2,8.659338E-2,2.6682404E-1,5.186043E-1,5.3480196E-1,6.9782953E-3,9.8965085E-1,4.777068E-3,3.442768E-3,8.827455E-1,-4.088904E-3,-1.7147169E-3,-3.257685E-3,-1.2319152E-3,-2.3799767E-3,-6.446476E-4,-6.1728904E-4,-1.7263767E-3,3.0082135E-4,-7.3285185E-4,-1.7450814E-3,-6.0929434E-4,2.75778E-4,1.1155983E-3,-4.560089E-4,5.070257E-4,2.0632385E-3,7.9677097E-4,3.1856627E-3,9.1878476E-4,6.9051855E-3,3.5369657E-3],"split_indices":[650,652,652,652,650,652,19,652,652,213,64,166,565,0,499,232,658,163,581,323,208,361,503,194,0,6,0,0,497,0,0,0,0,0,0,0,0,0,0,0,0,0,0,0,0,0,0,0,0,0,0],"split_type":[0,0,0,0,0,0,0,0,0,0,0,0,0,0,0,0,0,0,0,0,0,0,0,0,0,0,0,0,0,0,0,0,0,0,0,0,0,0,0,0,0,0,0,0,0,0,0,0,0,0,0],"sum_hessian":[5.36E2,3.63E2,1.73E2,2.36E2,1.27E2,1.11E2,6.2E1,1.49E2,8.7E1,4.8E1,7.9E1,8E1,3.1E1,8E0,5.4E1,4.8E1,1.01E2,5.4E1,3.3E1,3E1,1.8E1,5.1E1,2.8E1,7.8E1,2E0,1.6E1,1.5E1,4E0,5E1,4.6E1,2E0,9.9E1,2E0,5.2E1,2E0,2E0,3.1E1,4E0,2.6E1,1.3E1,5E0,2.6E1,2.5E1,1.7E1,1.1E1,6.3E1,1.5E1,1.5E1,1E0,4.6E1,4E0],"tree_param":{"num_deleted":"0","num_feature":"660","num_nodes":"51","size_leaf_vector":"1"}},{"base_weights":[9.930399E-4,-3.78378E-2,8.221966E-2,-5.714268E-2,-1.7980019E-3,5.0206985E-2,1.3782601E-1,-6.576718E-2,-3.8006995E-2,-1.8036997E-2,8.170858E-3,3.8996506E-2,7.7014536E-2,1.0220832E-2,1.24423444E-1,-7.2424345E-2,-5.7281118E-2,-4.050651E-2,-2.7702644E-2,-1.0889109E-2,-2.7856981E-2,1.3345594E-2,-1.3897327E-3,3.5518564E-2,7.930796E-3,5.9262328E-2,4.5531425E-3,1.2941381E-1,3.946417E-3,-1.4292303E-3,-3.6559792E-3,-1.0743577E-3,-2.8979077E-3,-1.1192866E-3,-2.1067772E-3,-6.7693705E-4,-1.4816422E-3,-8.0605544E-4,-1.932315E-5,-5.23048E-4,-1.7282603E-3,2.6249918E-4,1.0619642E-3,-4.344753E-4,4.8378692E-4,2.945112E-3,1.5862415E-3,1.9243537E-3,3.354773E-3,6.925816E-3,4.5281616E-3],"categories":[],"categories_nodes":[],"categories_segments":[],"categories_sizes":[],"default_left":[0,0,0,0,0,0,0,0,0,0,0,0,0,0,0,0,0,0,0,0,0,0,0,0,0,0,0,0,0,0,0,0,0,0,0,0,0,0,0,0,0,0,0,0,0,0,0,0,0,0,0],"id":24,"left_children":[1,3,5,7,9,11,13,15,17,19,21,23,25,-1,27,29,31,33,35,37,39,41,43,45,-1,47,-1,49,-1,-1,-1,-1,-1,-1,-1,-1,-1,-1,-1,-1,-1,-1,-1,-1,-1,-1,-1,-1,-1,-1,-1],"loss_changes":[1.6968616E0,2.5314802E-1,3.02819E-1,3.661388E-2,2.0868564E-2,3.0655533E-2,3.0792356E-2,5.003333E-3,8.3530694E-4,3.136078E-3,3.97643E-3,2.8064579E-2,2.5838315E-3,0E0,2.2725463E-3,5.6159496E-4,5.96419E-4,7.984042E-4,9.091385E-5,1.6422651E-3,1.9723438E-3,3.2115132E-3,2.4265652E-3,5.228251E-3,0E0,1.8419325E-4,0E0,4.430175E-3,0E0,0E0,0E0,0E0,0E0,0E0,0E0,0E0,0E0,0E0,0E0,0E0,0E0,0E0,0E0,0E0,0E0,0E0,0E0,0E0,0E0,0E0,0E0],"parents":[2147483647,0,0,1,1,2,2,3,3,4,4,5,5,6,6,7,7,8,8,9,9,10,10,11,11,12,12,14,14,15,15,16,16,17,17,18,18,19,19,20,20,21,21,22,22,23,23,25,25,27,27],"right_children":[2,4,6,8,10,12,14,16,18,20,22,24,26,-1,28,30,32,34,36,38,40,42,44,46,-1,48,-1,50,-1,-1,-1,-1,-1,-1,-1,-1,-1,-1,-1,-1,-1,-1,-1,-1,-1,-1,-1,-1,-1,-1,-1],"split_conditions":[3.929837E-1,2.496688E-1,6.8270314E-1,1.8102261E-1,3.243833E-1,5.363093E-1,4.6839127E-1,1.2225238E-1,5.955252E-1,9.9206194E-2,2.7583012E-1,8.459124E-1,1.5470083E-1,1.0220832E-2,7.965365E-1,1.3432795E-1,2.0686817E-1,3.434975E-1,3.722162E-2,2.690253E-1,2.1988288E-1,2.6682404E-1,5.186043E-1,2.868987E-2,7.930796E-3,1.15404114E-1,4.5531425E-3,8.376315E-2,3.946417E-3,-1.4292303E-3,-3.6559792E-3,-1.0743577E-3,-2.8979077E-3,-1.1192866E-3,-2.1067772E-3,-6.7693705E-4,-1.4816422E-3,-8.0605544E-4,-1.932315E-5,-5.23048E-4,-1.7282603E-3,2.6249918E-4,1.0619642E-3,-4.344753E-4,4.8378692E-4,2.945112E-3,1.5862415E-3,1.9243537E-3,3.354773E-3,6.925816E-3,4.5281616E-3],"split_indices":[650,652,652,652,650,652,19,650,194,224,64,157,565,0,71,6,251,30,444,515,262,361,503,257,0,543,0,219,0,0,0,0,0,0,0,0,0,0,0,0,0,0,0,0,0,0,0,0,0,0,0],"split_type":[0,0,0,0,0,0,0,0,0,0,0,0,0,0,0,0,0,0,0,0,0,0,0,0,0,0,0,0,0,0,0,0,0,0,0,0,0,0,0,0,0,0,0,0,0,0,0,0,0,0,0],"sum_hessian":[5.36E2,3.63E2,1.73E2,2.36E2,1.27E2,1.11E2,6.2E1,1.61E2,7.5E1,4.8E1,7.9E1,8E1,3.1E1,8E0,5.4E1,8.6E1,7.5E1,5.8E1,1.7E1,2.9E1,1.9E1,5.1E1,2.8E1,7.9E1,1E0,1.6E1,1.5E1,4.7E1,7E0,2E0,8.4E1,2E0,7.3E1,6E0,5.2E1,3E0,1.4E1,1.9E1,1E1,6E0,1.3E1,2.6E1,2.5E1,1.7E1,1.1E1,9E0,7E1,6E0,1E1,3.6E1,1.1E1],"tree_param":{"num_deleted":"0","num_feature":"660","num_nodes":"51","size_leaf_vector":"1"}},{"base_weights":[1.0025529E-3,-3.6318436E-2,7.775935E-2,-5.650653E-2,-5.716216E-3,4.0817153E-2,1.21579766E-1,-6.5570995E-2,-4.337942E-2,-2.4222488E-2,5.2082944E-3,3.8020447E-2,7.7325255E-3,1.0201814E-1,1.6053464E-1,-7.304992E-2,-3.005108E-3,-4.8194237E-2,-3.5915297E-2,-1.9367963E-2,-3.364893E-2,-9.046711E-4,1.2507174E-2,5.564582E-2,3.137246E-2,9.129378E-2,6.686648E-3,5.385375E-3,9.17591E-3,-3.709898E-3,-1.5356933E-3,-2.9345432E-3,-2.1460662E-3,-1.8449406E-3,-5.7428604E-4,-1.0149777E-4,-1.096671E-3,-3.5412982E-4,-1.7433333E-3,1.7450408E-3,-1.9348072E-4,-1.4697446E-4,8.11407E-4,7.8853994E-4,3.1245034E-3,1.0499771E-3,2.2597283E-3,3.2758706E-3,4.9340813E-3],"categories":[],"categories_nodes":[],"categories_segments":[],"categories_sizes":[],"default_left":[0,0,0,0,0,0,0,0,0,0,0,0,0,0,0,0,0,0,0,0,0,0,0,0,0,0,0,0,0,0,0,0,0,0,0,0,0,0,0,0,0,0,0,0,0,0,0,0,0],"id":25,"left_children":[1,3,5,7,9,11,13,15,17,19,21,23,-1,25,27,29,-1,31,33,35,37,39,41,43,45,47,-1,-1,-1,-1,-1,-1,-1,-1,-1,-1,-1,-1,-1,-1,-1,-1,-1,-1,-1,-1,-1,-1,-1],"loss_changes":[1.5411357E0,2.2332075E-1,2.7995014E-1,2.3095429E-2,2.9441094E-2,2.50009E-2,4.4584155E-2,8.0394745E-4,1.5754104E-3,1.8193796E-3,4.1161524E-3,9.502873E-3,0E0,6.8377256E-3,1.0587633E-2,1.026988E-4,0E0,4.143417E-4,5.3725764E-4,1.645714E-3,3.030151E-4,5.549275E-3,2.4617147E-3,5.837351E-3,9.373978E-3,2.1041036E-3,0E0,0E0,0E0,0E0,0E0,0E0,0E0,0E0,0E0,0E0,0E0,0E0,0E0,0E0,0E0,0E0,0E0,0E0,0E0,0E0,0E0,0E0,0E0],"parents":[2147483647,0,0,1,1,2,2,3,3,4,4,5,5,6,6,7,7,8,8,9,9,10,10,11,11,13,13,14,14,15,15,17,17,18,18,19,19,20,20,21,21,22,22,23,23,24,24,25,25],"right_children":[2,4,6,8,10,12,14,16,18,20,22,24,-1,26,28,30,-1,32,34,36,38,40,42,44,46,48,-1,-1,-1,-1,-1,-1,-1,-1,-1,-1,-1,-1,-1,-1,-1,-1,-1,-1,-1,-1,-1,-1,-1],"split_conditions":[4.079939E-1,2.2321145E-1,5.8069533E-1,1.475051E-1,3.0198336E-1,8.55488E-1,8.3836657E-1,1.0627468E-1,2.0078214E-1,3.5959935E-1,3.546112E-1,6.813776E-2,7.7325255E-3,3.098911E-1,2.519793E-1,1.7876837E-1,-3.005108E-3,4.952857E-2,2.9782346E-1,2.7454534E-1,4.4955727E-2,1.8017817E-2,3.5839297E-2,2.1444428E-1,5.278454E-1,3.9403144E-1,6.686648E-3,5.385375E-3,9.17591E-3,-3.709898E-3,-1.5356933E-3,-2.9345432E-3,-2.1460662E-3,-1.8449406E-3,-5.7428604E-4,-1.0149777E-4,-1.096671E-3,-3.5412982E-4,-1.7433333E-3,1.7450408E-3,-1.9348072E-4,-1.4697446E-4,8.11407E-4,7.8853994E-4,3.1245034E-3,1.0499771E-3,2.2597283E-3,3.2758706E-3,4.9340813E-3],"split_indices":[652,652,652,652,652,177,652,652,652,6,650,455,0,515,642,232,0,615,306,419,37,147,257,416,443,568,0,0,0,0,0,0,0,0,0,0,0,0,0,0,0,0,0,0,0,0,0,0,0],"split_type":[0,0,0,0,0,0,0,0,0,0,0,0,0,0,0,0,0,0,0,0,0,0,0,0,0,0,0,0,0,0,0,0,0,0,0,0,0,0,0,0,0,0,0,0,0,0,0,0,0],"sum_hessian":[5.36E2,3.61E2,1.75E2,2.17E2,1.44E2,9.6E1,7.9E1,1.26E2,9.1E1,5.3E1,9.1E1,9.5E1,1E0,5.5E1,2.4E1,4.8E1,7.8E1,5.2E1,3.9E1,3.7E1,1.6E1,5E1,4.1E1,2.4E1,7.1E1,4.4E1,1.1E1,9E0,1.5E1,4.6E1,2E0,1.4E1,3.8E1,3.7E1,2E0,5E0,3.2E1,1E0,1.5E1,3E0,4.7E1,8E0,3.3E1,4E0,2E1,4.2E1,2.9E1,1.2E1,3.2E1],"tree_param":{"num_deleted":"0","num_feature":"660","num_nodes":"49","size_leaf_vector":"1"}},{"base_weights":[1.0037916E-3,-3.454901E-2,7.412373E-2,-5.255598E-2,-3.518072E-3,4.5210622E-2,1.2526613E-1,-6.167482E-2,-3.904441E-2,-1.9461725E-2,6.2038847E-3,3.9517052E-2,1.0047204E-1,9.358755E-3,1.12858005E-1,-3.475224E-3,-2.8278052E-3,-4.36968E-2,-3.091591E-2,-1.0173496E-2,-2.5125954E-2,-7.358575E-3,9.021499E-3,3.0922271E-2,6.320115E-2,1.2000159E-3,5.829497E-3,1.1869411E-1,3.7363053E-3,-2.2713558E-3,-1.2300321E-3,-4.736662E-4,-1.5922008E-3,-7.9123554E-4,-1.1873439E-4,-4.242784E-4,-1.3638459E-3,-6.997422E-4,4.3564648E-4,3.8170465E-4,1.8731103E-3,1.842366E-3,9.718039E-4,3.5840205E-3,2.2175638E-3,6.170243E-3,3.3360836E-3],"categories":[],"categories_nodes":[],"categories_segments":[],"categories_sizes":[],"default_left":[0,0,0,0,0,0,0,0,0,0,0,0,0,0,0,0,0,0,0,0,0,0,0,0,0,0,0,0,0,0,0,0,0,0,0,0,0,0,0,0,0,0,0,0,0,0,0],"id":26,"left_children":[1,3,5,7,9,11,13,15,17,19,21,23,25,-1,27,-1,-1,29,31,33,35,37,39,41,43,-1,-1,45,-1,-1,-1,-1,-1,-1,-1,-1,-1,-1,-1,-1,-1,-1,-1,-1,-1,-1,-1],"loss_changes":[1.3985561E0,2.0209098E-1,2.5458533E-1,2.5807023E-2,2.0891208E-2,3.1897992E-2,2.7270734E-2,1.4795661E-3,2.241686E-3,2.427524E-3,3.276343E-3,1.9419432E-2,9.527437E-3,0E0,3.3702254E-3,0E0,0E0,7.989183E-4,4.5456737E-4,8.879488E-4,8.7811984E-4,1.7217582E-3,2.4761264E-3,4.660271E-3,1.13637E-3,0E0,0E0,3.0283928E-3,0E0,0E0,0E0,0E0,0E0,0E0,0E0,0E0,0E0,0E0,0E0,0E0,0E0,0E0,0E0,0E0,0E0,0E0,0E0],"parents":[2147483647,0,0,1,1,2,2,3,3,4,4,5,5,6,6,7,7,8,8,9,9,10,10,11,11,12,12,14,14,17,17,18,18,19,19,20,20,21,21,22,22,23,23,24,24,27,27],"right_children":[2,4,6,8,10,12,14,16,18,20,22,24,26,-1,28,-1,-1,30,32,34,36,38,40,42,44,-1,-1,46,-1,-1,-1,-1,-1,-1,-1,-1,-1,-1,-1,-1,-1,-1,-1,-1,-1,-1,-1],"split_conditions":[4.079939E-1,2.2699901E-1,6.8270314E-1,1.5347426E-1,3.1866008E-1,6.125525E-1,4.6839127E-1,1.0627468E-1,2.0933506E-1,7.614277E-2,3.7961572E-2,5.363093E-1,4.5864362E-2,9.358755E-3,1.06697395E-1,-3.475224E-3,-2.8278052E-3,5.547618E-1,2.4780361E-2,4.8814216E-1,1.3636433E-1,8.1760764E-2,4.5867684E-1,4.8648304E-1,4.0803096E-1,1.2000159E-3,5.829497E-3,8.4107286E-1,3.7363053E-3,-2.2713558E-3,-1.2300321E-3,-4.736662E-4,-1.5922008E-3,-7.9123554E-4,-1.1873439E-4,-4.242784E-4,-1.3638459E-3,-6.997422E-4,4.3564648E-4,3.8170465E-4,1.8731103E-3,1.842366E-3,9.718039E-4,3.5840205E-3,2.2175638E-3,6.170243E-3,3.3360836E-3],"split_indices":[652,650,652,652,652,62,19,652,652,235,373,652,21,0,351,0,0,161,180,634,3,87,614,140,624,0,0,249,0,0,0,0,0,0,0,0,0,0,0,0,0,0,0,0,0,0,0],"split_type":[0,0,0,0,0,0,0,0,0,0,0,0,0,0,0,0,0,0,0,0,0,0,0,0,0,0,0,0,0,0,0,0,0,0,0,0,0,0,0,0,0,0,0,0,0,0,0],"sum_hessian":[5.36E2,3.61E2,1.75E2,2.28E2,1.33E2,1.13E2,6.2E1,1.34E2,9.4E1,5E1,8.3E1,1.04E2,9E0,8E0,5.4E1,4.8E1,8.6E1,5.7E1,3.7E1,2E1,3E1,1.4E1,6.9E1,7.8E1,2.6E1,2E0,7E0,4.5E1,9E0,5.1E1,6E0,2E0,3.5E1,1.1E1,9E0,4E0,2.6E1,1E1,4E0,6.7E1,2E0,5E1,2.8E1,1.6E1,1E1,4E1,5E0],"tree_param":{"num_deleted":"0","num_feature":"660","num_nodes":"47","size_leaf_vector":"1"}},{"base_weights":[1.0013996E-3,-3.2577187E-2,7.12405E-2,-4.9776245E-2,-2.6849492E-3,4.3536324E-2,1.1936157E-1,-5.7502452E-2,-3.503591E-2,-1.6830264E-2,7.0735165E-3,3.3873342E-2,6.6635236E-2,8.94281E-3,1.0745588E-1,-6.610018E-2,-5.2808423E-2,-3.7085693E-2,-2.3407808E-2,-1.9201316E-2,5.7335445E-3,8.966883E-3,-1.7772486E-2,3.060002E-2,7.393475E-3,5.094806E-2,3.956908E-3,3.817618E-3,1.14360295E-1,-1.8077325E-3,-3.3979283E-3,-1.5541714E-3,-2.6921227E-3,-5.074141E-4,-1.8874109E-3,-1.3400792E-3,-6.9251045E-4,-1.8716857E-3,-8.401057E-4,1.0200342E-4,3.535133E-4,7.135857E-4,-2.2367922E-5,-1.2344223E-3,-1.3135225E-4,1.956859E-3,1.1171964E-3,1.64382E-3,2.8908285E-3,6.5880376E-3,4.588082E-3],"categories":[],"categories_nodes":[],"categories_segments":[],"categories_sizes":[],"default_left":[0,0,0,0,0,0,0,0,0,0,0,0,0,0,0,0,0,0,0,0,0,0,0,0,0,0,0,0,0,0,0,0,0,0,0,0,0,0,0,0,0,0,0,0,0,0,0,0,0,0,0],"id":27,"left_children":[1,3,5,7,9,11,13,15,17,19,21,23,25,-1,27,29,31,33,35,37,39,41,43,45,-1,47,-1,-1,49,-1,-1,-1,-1,-1,-1,-1,-1,-1,-1,-1,-1,-1,-1,-1,-1,-1,-1,-1,-1,-1,-1],"loss_changes":[1.2688513E0,1.870054E-1,2.2677237E-1,2.4293244E-2,1.8615948E-2,2.274172E-2,2.5405288E-2,2.5630891E-3,1.086399E-3,3.0525904E-3,3.922771E-3,2.5700018E-2,2.244413E-3,0E0,3.0796528E-3,2.6986003E-4,6.1771274E-4,8.3049387E-4,1.1533685E-4,1.5581939E-3,1.5199053E-5,3.7519569E-3,5.636137E-4,4.7642067E-3,0E0,2.0932779E-4,0E0,0E0,4.818201E-3,0E0,0E0,0E0,0E0,0E0,0E0,0E0,0E0,0E0,0E0,0E0,0E0,0E0,0E0,0E0,0E0,0E0,0E0,0E0,0E0,0E0,0E0],"parents":[2147483647,0,0,1,1,2,2,3,3,4,4,5,5,6,6,7,7,8,8,9,9,10,10,11,11,12,12,14,14,15,15,16,16,17,17,18,18,19,19,20,20,21,21,22,22,23,23,25,25,28,28],"right_children":[2,4,6,8,10,12,14,16,18,20,22,24,26,-1,28,30,32,34,36,38,40,42,44,46,-1,48,-1,-1,50,-1,-1,-1,-1,-1,-1,-1,-1,-1,-1,-1,-1,-1,-1,-1,-1,-1,-1,-1,-1,-1,-1],"split_conditions":[3.929837E-1,2.3831649E-1,6.8270314E-1,1.657607E-1,3.1533286E-1,5.363093E-1,4.6839127E-1,1.0627468E-1,6.5471095E-1,3.541578E-1,1.2325967E-1,8.459124E-1,1.5470083E-1,8.94281E-3,4.0495953E-1,2.079928E-1,2.4026148E-2,3.434975E-1,6.547427E-2,1.6439569E-1,5.04202E-1,2.7583012E-1,6.537296E-2,1.01797424E-1,7.393475E-3,1.15404114E-1,3.956908E-3,3.817618E-3,5.148637E-1,-1.8077325E-3,-3.3979283E-3,-1.5541714E-3,-2.6921227E-3,-5.074141E-4,-1.8874109E-3,-1.3400792E-3,-6.9251045E-4,-1.8716857E-3,-8.401057E-4,1.0200342E-4,3.535133E-4,7.135857E-4,-2.2367922E-5,-1.2344223E-3,-1.3135225E-4,1.956859E-3,1.1171964E-3,1.64382E-3,2.8908285E-3,6.5880376E-3,4.588082E-3],"split_indices":[650,652,652,652,651,652,19,652,194,658,318,157,565,0,645,458,483,8,76,240,8,64,21,444,0,543,0,0,624,0,0,0,0,0,0,0,0,0,0,0,0,0,0,0,0,0,0,0,0,0,0],"split_type":[0,0,0,0,0,0,0,0,0,0,0,0,0,0,0,0,0,0,0,0,0,0,0,0,0,0,0,0,0,0,0,0,0,0,0,0,0,0,0,0,0,0,0,0,0,0,0,0,0,0,0],"sum_hessian":[5.36E2,3.63E2,1.73E2,2.3E2,1.33E2,1.11E2,6.2E1,1.49E2,8.1E1,5.4E1,7.9E1,8E1,3.1E1,8E0,5.4E1,4.8E1,1.01E2,6.7E1,1.4E1,4.9E1,5E0,7.4E1,5E0,7.9E1,1E0,1.6E1,1.5E1,1.2E1,4.2E1,4E0,4.4E1,6E0,9.5E1,2E0,6.5E1,9E0,5E0,4E0,4.5E1,2E0,3E0,4.7E1,2.7E1,3E0,2E0,3.7E1,4.2E1,6E0,1E1,2.1E1,2.1E1],"tree_param":{"num_deleted":"0","num_feature":"660","num_nodes":"51","size_leaf_vector":"1"}},{"base_weights":[9.999061E-4,-3.1276338E-2,6.738059E-2,-4.8638985E-2,-4.9567986E-3,4.1151375E-2,1.1377344E-1,-5.769711E-2,-3.870301E-2,-2.0936653E-2,4.47656E-3,3.581796E-2,9.30371E-2,8.545353E-3,1.023557E-1,-9.6921774E-4,-5.8217485E-2,-4.4087753E-2,-3.2384824E-2,-1.1665384E-2,-2.4533361E-2,-9.787807E-4,1.0994317E-2,2.8017482E-2,5.7314985E-2,1.108781E-3,5.399026E-3,4.0549296E-3,1.1309984E-1,-7.4658653E-4,-2.9238807E-3,-2.2947073E-3,-1.2572379E-3,-1.6532872E-3,-5.0071307E-4,-8.132124E-4,-1.386057E-4,-1.3141552E-3,-1.5448965E-4,1.601243E-3,-1.8543465E-4,-1.7198837E-4,7.245871E-4,1.4761519E-3,-3.7962125E-4,1.280516E-3,3.0105487E-3,2.7366371E-3,5.952885E-3],"categories":[],"categories_nodes":[],"categories_segments":[],"categories_sizes":[],"default_left":[0,0,0,0,0,0,0,0,0,0,0,0,0,0,0,0,0,0,0,0,0,0,0,0,0,0,0,0,0,0,0,0,0,0,0,0,0,0,0,0,0,0,0,0,0,0,0,0,0],"id":28,"left_children":[1,3,5,7,9,11,13,15,17,19,21,23,25,-1,27,-1,29,31,33,35,37,39,41,43,45,-1,-1,-1,47,-1,-1,-1,-1,-1,-1,-1,-1,-1,-1,-1,-1,-1,-1,-1,-1,-1,-1,-1,-1],"loss_changes":[1.1526402E0,1.6518453E-1,2.0948339E-1,1.7387211E-2,2.195156E-2,2.8214619E-2,2.3603916E-2,1.1044443E-3,2.2125542E-3,1.5144981E-3,3.2819668E-3,1.6001299E-2,8.194596E-3,0E0,3.3891797E-3,0E0,3.6543608E-4,7.280186E-4,4.761964E-4,6.501954E-4,1.3445765E-3,4.7137192E-3,2.1700975E-3,4.4595525E-3,9.370148E-4,0E0,0E0,0E0,5.3068995E-3,0E0,0E0,0E0,0E0,0E0,0E0,0E0,0E0,0E0,0E0,0E0,0E0,0E0,0E0,0E0,0E0,0E0,0E0,0E0,0E0],"parents":[2147483647,0,0,1,1,2,2,3,3,4,4,5,5,6,6,7,7,8,8,9,9,10,10,11,11,12,12,14,14,16,16,17,17,18,18,19,19,20,20,21,21,22,22,23,23,24,24,28,28],"right_children":[2,4,6,8,10,12,14,16,18,20,22,24,26,-1,28,-1,30,32,34,36,38,40,42,44,46,-1,-1,-1,48,-1,-1,-1,-1,-1,-1,-1,-1,-1,-1,-1,-1,-1,-1,-1,-1,-1,-1,-1,-1],"split_conditions":[4.079939E-1,2.2321145E-1,6.8270314E-1,1.4224946E-1,3.0198336E-1,6.125525E-1,4.6839127E-1,4.4383258E-1,1.8727513E-1,1.4349633E-1,3.546112E-1,5.363093E-1,4.5864362E-2,8.545353E-3,2.4471846E-1,-9.6921774E-4,8.692192E-2,6.107258E-1,2.9782346E-1,2.6481313E-1,7.0620906E-1,1.8017817E-2,3.5839297E-2,7.5254E-1,4.6459252E-1,1.108781E-3,5.399026E-3,4.0549296E-3,1.0207956E-1,-7.4658653E-4,-2.9238807E-3,-2.2947073E-3,-1.2572379E-3,-1.6532872E-3,-5.0071307E-4,-8.132124E-4,-1.386057E-4,-1.3141552E-3,-1.5448965E-4,1.601243E-3,-1.8543465E-4,-1.7198837E-4,7.245871E-4,1.4761519E-3,-3.7962125E-4,1.280516E-3,3.0105487E-3,2.7366371E-3,5.952885E-3],"split_indices":[652,652,652,652,652,62,19,85,652,3,650,652,21,0,273,0,359,205,306,438,8,147,257,337,520,0,0,0,68,0,0,0,0,0,0,0,0,0,0,0,0,0,0,0,0,0,0,0,0],"split_type":[0,0,0,0,0,0,0,0,0,0,0,0,0,0,0,0,0,0,0,0,0,0,0,0,0,0,0,0,0,0,0,0,0,0,0,0,0,0,0,0,0,0,0,0,0,0,0,0,0],"sum_hessian":[5.36E2,3.61E2,1.75E2,2.17E2,1.44E2,1.13E2,6.2E1,1.11E2,1.06E2,5.3E1,9.1E1,1.04E2,9E0,8E0,5.4E1,2E0,1.09E2,5.4E1,5.2E1,1.6E1,3.7E1,5E1,4.1E1,7.8E1,2.6E1,2E0,7E0,2.1E1,3.3E1,1E0,1.08E2,4.8E1,6E0,5E1,2E0,1E1,6E0,3.4E1,3E0,3E0,4.7E1,8E0,3.3E1,7.5E1,3E0,3E0,2.3E1,4E0,2.9E1],"tree_param":{"num_deleted":"0","num_feature":"660","num_nodes":"49","size_leaf_vector":"1"}},{"base_weights":[9.916014E-4,-2.8855762E-2,6.615542E-2,-4.4486452E-2,-7.856207E-4,4.0650796E-2,1.0842271E-1,-5.1225815E-2,-2.953561E-2,-1.3142821E-2,7.827438E-3,3.7895855E-2,6.1761755E-3,8.16556E-3,9.7469635E-2,-5.660556E-2,-4.4393405E-2,-3.1498387E-2,-2.1461196E-2,-7.220012E-3,-2.3146737E-2,4.2078192E-3,1.9036349E-2,2.843421E-2,5.9564486E-2,1.0196122E-1,2.916822E-3,-1.2267923E-3,-2.8729406E-3,-7.7868305E-4,-2.2480933E-3,-8.5032743E-4,-1.6409047E-3,-4.9708335E-4,-1.1551161E-3,-8.303539E-4,-1.4854343E-4,-8.1668945E-4,-1.8160659E-3,1.198625E-3,8.079044E-5,1.9557863E-4,1.1404426E-3,1.8622862E-3,9.896497E-4,2.1173963E-3,3.5625887E-3,5.498241E-3,3.4393338E-3],"categories":[],"categories_nodes":[],"categories_segments":[],"categories_sizes":[],"default_left":[0,0,0,0,0,0,0,0,0,0,0,0,0,0,0,0,0,0,0,0,0,0,0,0,0,0,0,0,0,0,0,0,0,0,0,0,0,0,0,0,0,0,0,0,0,0,0,0,0],"id":29,"left_children":[1,3,5,7,9,11,13,15,17,19,21,23,-1,-1,25,27,29,31,33,35,37,39,41,43,45,47,-1,-1,-1,-1,-1,-1,-1,-1,-1,-1,-1,-1,-1,-1,-1,-1,-1,-1,-1,-1,-1,-1,-1],"loss_changes":[1.0463569E0,1.6186586E-1,1.7777646E-1,2.236697E-2,1.4258503E-2,1.9748107E-2,2.1957517E-2,3.4416616E-3,5.2847713E-4,3.0917004E-3,3.1250855E-3,1.9833535E-2,0E0,0E0,3.7193298E-3,9.7084045E-4,5.4487586E-4,5.702488E-4,1.10615045E-4,1.3865941E-3,1.2018913E-3,3.0863106E-3,9.948881E-4,4.9734563E-3,3.22029E-3,5.180657E-3,0E0,0E0,0E0,0E0,0E0,0E0,0E0,0E0,0E0,0E0,0E0,0E0,0E0,0E0,0E0,0E0,0E0,0E0,0E0,0E0,0E0,0E0,0E0],"parents":[2147483647,0,0,1,1,2,2,3,3,4,4,5,5,6,6,7,7,8,8,9,9,10,10,11,11,14,14,15,15,16,16,17,17,18,18,19,19,20,20,21,21,22,22,23,23,24,24,25,25],"right_children":[2,4,6,8,10,12,14,16,18,20,22,24,-1,-1,26,28,30,32,34,36,38,40,42,44,46,48,-1,-1,-1,-1,-1,-1,-1,-1,-1,-1,-1,-1,-1,-1,-1,-1,-1,-1,-1,-1,-1,-1,-1],"split_conditions":[3.9957136E-1,2.496688E-1,6.8270314E-1,1.8102261E-1,3.281637E-1,9.9770325E-1,4.6839127E-1,1.2225238E-1,5.955252E-1,9.8636836E-2,4.683199E-1,5.363093E-1,6.1761755E-3,8.16556E-3,7.965365E-1,1.3731073E-1,2.0686817E-1,3.434975E-1,3.722162E-2,2.2747596E-1,1.15002535E-1,1.9336532E-1,2.2631933E-1,1.01797424E-1,4.7687862E-2,8.376315E-2,2.916822E-3,-1.2267923E-3,-2.8729406E-3,-7.7868305E-4,-2.2480933E-3,-8.5032743E-4,-1.6409047E-3,-4.9708335E-4,-1.1551161E-3,-8.303539E-4,-1.4854343E-4,-8.1668945E-4,-1.8160659E-3,1.198625E-3,8.079044E-5,1.9557863E-4,1.1404426E-3,1.8622862E-3,9.896497E-4,2.1173963E-3,3.5625887E-3,5.498241E-3,3.4393338E-3],"split_indices":[650,652,652,652,650,182,19,650,194,213,487,652,0,0,71,6,251,30,444,537,180,163,251,444,406,219,0,0,0,0,0,0,0,0,0,0,0,0,0,0,0,0,0,0,0,0,0,0,0],"split_type":[0,0,0,0,0,0,0,0,0,0,0,0,0,0,0,0,0,0,0,0,0,0,0,0,0,0,0,0,0,0,0,0,0,0,0,0,0,0,0,0,0,0,0,0,0,0,0,0,0],"sum_hessian":[5.36E2,3.68E2,1.68E2,2.36E2,1.32E2,1.06E2,6.2E1,1.61E2,7.5E1,5.4E1,7.8E1,1.04E2,2E0,8E0,5.4E1,8.6E1,7.5E1,5.8E1,1.7E1,3.5E1,1.9E1,6E1,1.8E1,7.4E1,3E1,4.7E1,7E0,3E0,8.3E1,2E0,7.3E1,6E0,5.2E1,3E0,1.4E1,1E1,2.5E1,1.4E1,5E0,6E0,5.4E1,4E0,1.4E1,3.5E1,3.9E1,1.4E1,1.6E1,3.6E1,1.1E1],"tree_param":{"num_deleted":"0","num_feature":"660","num_nodes":"49","size_leaf_vector":"1"}},{"base_weights":[9.838517E-4,-2.7446216E-2,6.3053146E-2,-4.0862516E-2,2.1674542E-3,3.875572E-2,1.0331937E-1,-4.8708513E-2,-2.6755905E-2,-8.911571E-3,7.46917E-3,3.65103E-2,6.9192573E-3,9.111197E-2,7.3804073E-3,-5.7256486E-2,-4.4607118E-2,-1.12083135E-2,-2.849407E-2,-4.1292883E-3,-1.8929077E-2,1.1769905E-2,-1.24965E-3,2.7050527E-2,5.7540692E-2,9.595908E-2,2.6228987E-3,-1.5035503E-3,-2.9502364E-3,-2.2624105E-3,-1.0790883E-3,-7.839474E-4,2.6751683E-5,-4.030618E-4,-1.4713302E-3,3.057033E-4,-4.0100826E-4,-1.0252019E-3,-3.684759E-4,-4.215023E-5,7.7410246E-4,-3.537004E-4,5.592533E-4,1.7960022E-3,9.613192E-4,2.1713555E-3,3.4470044E-3,3.2746792E-3,5.2526398E-3],"categories":[],"categories_nodes":[],"categories_segments":[],"categories_sizes":[],"default_left":[0,0,0,0,0,0,0,0,0,0,0,0,0,0,0,0,0,0,0,0,0,0,0,0,0,0,0,0,0,0,0,0,0,0,0,0,0,0,0,0,0,0,0,0,0,0,0,0,0],"id":30,"left_children":[1,3,5,7,9,11,13,15,17,19,21,23,-1,25,-1,27,29,31,33,35,37,39,41,43,45,47,-1,-1,-1,-1,-1,-1,-1,-1,-1,-1,-1,-1,-1,-1,-1,-1,-1,-1,-1,-1,-1,-1,-1],"loss_changes":[9.493392E-1,1.4669442E-1,1.6133958E-1,2.6809603E-2,6.880152E-3,1.888448E-2,2.061218E-2,3.1254292E-3,2.1938905E-3,1.742285E-3,2.9769973E-3,1.9531429E-2,0E0,4.708886E-3,0E0,5.544871E-4,7.0624053E-4,5.858912E-4,1.3442859E-3,1.1251379E-3,6.736489E-5,2.494561E-3,2.0345778E-3,4.514113E-3,2.1544918E-3,5.5867136E-3,0E0,0E0,0E0,0E0,0E0,0E0,0E0,0E0,0E0,0E0,0E0,0E0,0E0,0E0,0E0,0E0,0E0,0E0,0E0,0E0,0E0,0E0,0E0],"parents":[2147483647,0,0,1,1,2,2,3,3,4,4,5,5,6,6,7,7,8,8,9,9,10,10,11,11,13,13,15,15,16,16,17,17,18,18,19,19,20,20,21,21,22,22,23,23,24,24,25,25],"right_children":[2,4,6,8,10,12,14,16,18,20,22,24,-1,26,-1,28,30,32,34,36,38,40,42,44,46,48,-1,-1,-1,-1,-1,-1,-1,-1,-1,-1,-1,-1,-1,-1,-1,-1,-1,-1,-1,-1,-1,-1,-1],"split_conditions":[3.9957136E-1,2.6718152E-1,6.8270314E-1,1.8102261E-1,3.281637E-1,8.55488E-1,8.252172E-1,1.0627468E-1,1.3972236E-1,2.750905E-1,2.7583012E-1,5.363093E-1,6.9192573E-3,1.21649526E-1,7.3804073E-3,2.079928E-1,1.5960185E-1,5.626633E-1,2.9328108E-1,4.597715E-2,2.8596762E-1,5.6252938E-2,2.8562745E-1,1.0148039E-1,1.5470083E-1,2.2999586E-1,2.6228987E-3,-1.5035503E-3,-2.9502364E-3,-2.2624105E-3,-1.0790883E-3,-7.839474E-4,2.6751683E-5,-4.030618E-4,-1.4713302E-3,3.057033E-4,-4.0100826E-4,-1.0252019E-3,-3.684759E-4,-4.215023E-5,7.7410246E-4,-3.537004E-4,5.592533E-4,1.7960022E-3,9.613192E-4,2.1713555E-3,3.4470044E-3,3.2746792E-3,5.2526398E-3],"split_indices":[650,652,652,652,650,177,448,652,3,141,64,652,0,351,0,458,120,73,316,384,97,565,449,444,565,658,0,0,0,0,0,0,0,0,0,0,0,0,0,0,0,0,0,0,0,0,0,0,0],"split_type":[0,0,0,0,0,0,0,0,0,0,0,0,0,0,0,0,0,0,0,0,0,0,0,0,0,0,0,0,0,0,0,0,0,0,0,0,0,0,0,0,0,0,0,0,0,0,0,0,0],"sum_hessian":[5.36E2,3.68E2,1.68E2,2.53E2,1.15E2,1.06E2,6.2E1,1.61E2,9.2E1,3.7E1,7.8E1,1.05E2,1E0,5.1E1,1.1E1,4.8E1,1.13E2,1E1,8.2E1,2.6E1,1.1E1,5.2E1,2.6E1,7.4E1,3.1E1,4.4E1,7E0,4E0,4.4E1,1.09E2,4E0,7E0,3E0,4E0,7.8E1,7E0,1.9E1,9E0,2E0,1.2E1,4E1,1.8E1,8E0,3.3E1,4.1E1,1.6E1,1.5E1,1.2E1,3.2E1],"tree_param":{"num_deleted":"0","num_feature":"660","num_nodes":"49","size_leaf_vector":"1"}},{"base_weights":[9.772022E-4,-2.6113784E-2,6.0122743E-2,-3.8860437E-2,2.0221116E-3,3.6920805E-2,9.8574884E-2,-4.6321206E-2,-2.5446406E-2,-1.0308192E-2,6.4432425E-3,3.1860653E-2,8.281822E-2,1.2687069E-1,7.913303E-2,-5.0915603E-2,-3.955549E-2,-1.581299E-2,-2.8208692E-2,-1.3158313E-2,1.3434121E-3,2.7110804E-2,3.6754655E-3,2.1811074E-2,4.3698523E-2,1.3340276E-3,5.1532853E-3,2.5208574E-3,6.982027E-3,2.3415037E-3,8.456607E-2,-1.4108302E-3,-2.6078362E-3,-2.0078614E-3,-6.3654804E-4,1.2283673E-4,-8.834975E-4,-9.202246E-4,-1.5146927E-3,-3.632286E-4,-9.999512E-4,3.0080305E-4,-1.8325448E-4,3.8247518E-4,1.7179287E-3,2.8136781E-5,7.7537884E-4,1.6378703E-3,7.0433255E-4,1.3460445E-3,2.616214E-3,2.6596133E-3,4.548351E-3],"categories":[],"categories_nodes":[],"categories_segments":[],"categories_sizes":[],"default_left":[0,0,0,0,0,0,0,0,0,0,0,0,0,0,0,0,0,0,0,0,0,0,0,0,0,0,0,0,0,0,0,0,0,0,0,0,0,0,0,0,0,0,0,0,0,0,0,0,0,0,0,0,0],"id":31,"left_children":[1,3,5,7,9,11,13,15,17,19,21,23,25,27,29,31,33,35,37,39,41,43,45,47,49,-1,-1,-1,-1,-1,51,-1,-1,-1,-1,-1,-1,-1,-1,-1,-1,-1,-1,-1,-1,-1,-1,-1,-1,-1,-1,-1,-1],"loss_changes":[8.620111E-1,1.3241622E-1,1.4713627E-1,2.4241328E-2,6.390029E-3,2.2211894E-2,2.461809E-2,3.0216873E-3,2.028685E-3,1.0471405E-3,4.8198304E-3,1.0705516E-2,8.616626E-3,1.639095E-2,3.0599236E-3,1.1483282E-3,6.186515E-4,8.23712E-4,8.9393184E-4,8.6264964E-4,1.8587017E-4,1.1476846E-3,2.8271964E-3,4.189033E-3,4.9590543E-3,0E0,0E0,0E0,0E0,0E0,1.7883778E-3,0E0,0E0,0E0,0E0,0E0,0E0,0E0,0E0,0E0,0E0,0E0,0E0,0E0,0E0,0E0,0E0,0E0,0E0,0E0,0E0,0E0,0E0],"parents":[2147483647,0,0,1,1,2,2,3,3,4,4,5,5,6,6,7,7,8,8,9,9,10,10,11,11,12,12,13,13,14,14,15,15,16,16,17,17,18,18,19,19,20,20,21,21,22,22,23,23,24,24,30,30],"right_children":[2,4,6,8,10,12,14,16,18,20,22,24,26,28,30,32,34,36,38,40,42,44,46,48,50,-1,-1,-1,-1,-1,52,-1,-1,-1,-1,-1,-1,-1,-1,-1,-1,-1,-1,-1,-1,-1,-1,-1,-1,-1,-1,-1,-1],"split_conditions":[4.1891605E-1,2.6718152E-1,6.639956E-1,1.8102261E-1,3.0399373E-1,6.125525E-1,1.2225254E-1,1.2750067E-1,2.3202434E-1,1.0686461E-1,3.2646495E-1,5.3776336E-1,4.6308327E-1,9.4344065E-2,1.142841E-1,1.3731073E-1,5.7188296E-1,2.9363894E-1,3.8644546E-1,7.487472E-2,5.1504576E-1,2.8438857E-1,4.6168017E-1,3.8988727E-1,3.128769E-1,1.3340276E-3,5.1532853E-3,2.5208574E-3,6.982027E-3,2.3415037E-3,2.3860955E-1,-1.4108302E-3,-2.6078362E-3,-2.0078614E-3,-6.3654804E-4,1.2283673E-4,-8.834975E-4,-9.202246E-4,-1.5146927E-3,-3.632286E-4,-9.999512E-4,3.0080305E-4,-1.8325448E-4,3.8247518E-4,1.7179287E-3,2.8136781E-5,7.7537884E-4,1.6378703E-3,7.0433255E-4,1.3460445E-3,2.616214E-3,2.6596133E-3,4.548351E-3],"split_indices":[652,652,650,652,618,62,0,652,5,615,282,442,173,167,576,6,52,304,305,389,7,95,485,497,216,0,0,0,0,0,130,0,0,0,0,0,0,0,0,0,0,0,0,0,0,0,0,0,0,0,0,0,0],"split_type":[0,0,0,0,0,0,0,0,0,0,0,0,0,0,0,0,0,0,0,0,0,0,0,0,0,0,0,0,0,0,0,0,0,0,0,0,0,0,0,0,0,0,0,0,0,0,0,0,0,0,0,0,0],"sum_hessian":[5.36E2,3.68E2,1.68E2,2.53E2,1.15E2,1.06E2,6.2E1,1.61E2,9.2E1,3E1,8.5E1,9.7E1,9E0,2.3E1,3.9E1,9.2E1,6.9E1,2.2E1,7E1,2.4E1,6E0,9E0,7.6E1,5.4E1,4.3E1,3E0,6E0,4E0,1.9E1,7E0,3.2E1,6E0,8.6E1,6.7E1,2E0,2E0,2E1,1.4E1,5.6E1,1.4E1,1E1,3E0,3E0,3E0,6E0,6.1E1,1.5E1,2.1E1,3.3E1,1.6E1,2.7E1,7E0,2.5E1],"tree_param":{"num_deleted":"0","num_feature":"660","num_nodes":"53","size_leaf_vector":"1"}},{"base_weights":[9.7237E-4,-2.4830317E-2,5.730503E-2,-3.6956232E-2,1.9353058E-3,3.519431E-2,9.394855E-2,-4.4046275E-2,-2.4208449E-2,-9.83296E-3,6.1548515E-3,3.033195E-2,7.9326026E-2,1.3117062E-1,7.958393E-2,-5.1954366E-2,-4.0260814E-2,-1.0005045E-2,-2.579916E-2,-1.4958399E-2,-3.3685982E-3,3.7431414E-3,2.9201131E-2,2.0763112E-2,4.1603636E-2,1.2840014E-3,4.9324296E-3,2.224061E-3,7.018879E-3,7.150497E-2,5.552029E-3,-1.3390946E-3,-2.6798386E-3,-1.1147074E-3,-2.0526268E-3,-7.1099674E-4,4.629977E-5,-8.534154E-4,-1.406222E-3,-3.0638746E-4,-9.609025E-4,8.338421E-5,-5.6004844E-4,4.6563986E-5,7.378321E-4,5.062943E-4,1.6935951E-3,1.9587525E-3,8.154572E-4,1.2827008E-3,2.4900746E-3,3.9934437E-3,2.6722287E-3],"categories":[],"categories_nodes":[],"categories_segments":[],"categories_sizes":[],"default_left":[0,0,0,0,0,0,0,0,0,0,0,0,0,0,0,0,0,0,0,0,0,0,0,0,0,0,0,0,0,0,0,0,0,0,0,0,0,0,0,0,0,0,0,0,0,0,0,0,0,0,0,0,0],"id":32,"left_children":[1,3,5,7,9,11,13,15,17,19,21,23,25,27,29,31,33,35,37,39,41,43,45,47,49,-1,-1,-1,-1,51,-1,-1,-1,-1,-1,-1,-1,-1,-1,-1,-1,-1,-1,-1,-1,-1,-1,-1,-1,-1,-1,-1,-1],"loss_changes":[7.819707E-1,1.19833276E-1,1.3361973E-1,2.189082E-2,5.820702E-3,2.0554408E-2,2.3245871E-2,2.7578473E-3,1.8430799E-3,9.767246E-4,4.670657E-3,9.706169E-3,7.832482E-3,6.526172E-3,4.258603E-3,5.903989E-4,7.0635974E-4,5.1997195E-4,1.2049973E-3,5.216999E-4,6.103702E-4,2.4327645E-3,3.6978535E-4,3.8714278E-3,4.475504E-3,0E0,0E0,0E0,0E0,1.9247234E-3,0E0,0E0,0E0,0E0,0E0,0E0,0E0,0E0,0E0,0E0,0E0,0E0,0E0,0E0,0E0,0E0,0E0,0E0,0E0,0E0,0E0,0E0,0E0],"parents":[2147483647,0,0,1,1,2,2,3,3,4,4,5,5,6,6,7,7,8,8,9,9,10,10,11,11,12,12,13,13,14,14,15,15,16,16,17,17,18,18,19,19,20,20,21,21,22,22,23,23,24,24,29,29],"right_children":[2,4,6,8,10,12,14,16,18,20,22,24,26,28,30,32,34,36,38,40,42,44,46,48,50,-1,-1,-1,-1,52,-1,-1,-1,-1,-1,-1,-1,-1,-1,-1,-1,-1,-1,-1,-1,-1,-1,-1,-1,-1,-1,-1,-1],"split_conditions":[4.1891605E-1,2.6718152E-1,6.639956E-1,1.8102261E-1,3.0399373E-1,6.125525E-1,5.049839E-1,1.0627468E-1,1.3972236E-1,5.6561187E-2,3.166041E-1,5.3776336E-1,4.6308327E-1,1.9774821E-1,8.906539E-1,2.079928E-1,2.4026148E-2,5.626633E-1,3.9474952E-1,4.029608E-2,6.575156E-1,4.6168017E-1,4.081778E-1,3.5933543E-2,3.128769E-1,1.2840014E-3,4.9324296E-3,2.224061E-3,7.018879E-3,2.8309572E-1,5.552029E-3,-1.3390946E-3,-2.6798386E-3,-1.1147074E-3,-2.0526268E-3,-7.1099674E-4,4.629977E-5,-8.534154E-4,-1.406222E-3,-3.0638746E-4,-9.609025E-4,8.338421E-5,-5.6004844E-4,4.6563986E-5,7.378321E-4,5.062943E-4,1.6935951E-3,1.9587525E-3,8.154572E-4,1.2827008E-3,2.4900746E-3,3.9934437E-3,2.6722287E-3],"split_indices":[652,652,650,652,618,62,19,652,3,307,108,442,173,7,51,458,483,73,316,367,73,485,8,257,216,0,0,0,0,108,0,0,0,0,0,0,0,0,0,0,0,0,0,0,0,0,0,0,0,0,0,0,0],"split_type":[0,0,0,0,0,0,0,0,0,0,0,0,0,0,0,0,0,0,0,0,0,0,0,0,0,0,0,0,0,0,0,0,0,0,0,0,0,0,0,0,0,0,0,0,0,0,0,0,0,0,0,0,0],"sum_hessian":[5.36E2,3.68E2,1.68E2,2.53E2,1.15E2,1.06E2,6.2E1,1.61E2,9.2E1,3E1,8.5E1,9.7E1,9E0,1.5E1,4.7E1,4.8E1,1.13E2,1E1,8.2E1,1.6E1,1.4E1,7.8E1,7E0,5.4E1,4.3E1,3E0,6E0,2E0,1.3E1,4E1,7E0,4E0,4.4E1,6E0,1.07E2,7E0,3E0,1.9E1,6.3E1,6E0,1E1,9E0,5E0,6.3E1,1.5E1,2E0,5E0,9E0,4.5E1,1.6E1,2.7E1,2.5E1,1.5E1],"tree_param":{"num_deleted":"0","num_feature":"660","num_nodes":"53","size_leaf_vector":"1"}},{"base_weights":[9.709643E-4,-2.361284E-2,5.4642282E-2,-3.5148226E-2,1.8492392E-3,3.3534825E-2,8.962412E-2,-4.1665323E-2,-2.2597823E-2,-7.949837E-3,6.539311E-3,2.88309E-2,7.627978E-2,6.8641873E-3,8.019574E-2,-4.3948922E-2,-2.9848034E-2,-7.904884E-3,-2.4151968E-2,-3.554353E-3,-1.7177189E-2,1.6618547E-3,5.048121E-3,1.97754E-2,3.9495032E-2,6.151272E-3,4.9215186E-2,3.1246992E-3,8.9291126E-2,-1.6699063E-3,-2.3359729E-3,-8.3231274E-4,-1.6227441E-3,-5.900992E-4,4.456304E-5,-3.2642335E-4,-1.249681E-3,2.9349254E-4,-3.5731585E-4,-9.317379E-4,-3.2964497E-4,-1.8528757E-4,4.7059482E-4,1.4973938E-3,6.30579E-4,2.3019789E-3,1.1091231E-3,2.705327E-3,3.7439243E-4,4.6714E-3,1.7453767E-3],"categories":[],"categories_nodes":[],"categories_segments":[],"categories_sizes":[],"default_left":[0,0,0,0,0,0,0,0,0,0,0,0,0,0,0,0,0,0,0,0,0,0,0,0,0,0,0,0,0,0,0,0,0,0,0,0,0,0,0,0,0,0,0,0,0,0,0,0,0,0,0],"id":33,"left_children":[1,3,5,7,9,11,13,15,17,19,21,23,25,-1,27,29,31,33,35,37,39,-1,41,43,45,-1,47,-1,49,-1,-1,-1,-1,-1,-1,-1,-1,-1,-1,-1,-1,-1,-1,-1,-1,-1,-1,-1,-1,-1,-1],"loss_changes":[7.098323E-1,1.0844578E-1,1.21780336E-1,1.9833684E-2,5.383157E-3,1.931516E-2,1.7299592E-2,3.1678677E-3,1.8413924E-3,1.4801759E-3,2.977321E-3,8.682735E-3,6.5968037E-3,0E0,3.2751262E-3,2.4443567E-3,4.921984E-4,3.5331317E-4,1.0234602E-3,9.5593557E-4,6.227102E-5,0E0,2.9380736E-3,3.630368E-3,3.9640516E-3,0E0,1.2276843E-3,0E0,4.3878853E-3,0E0,0E0,0E0,0E0,0E0,0E0,0E0,0E0,0E0,0E0,0E0,0E0,0E0,0E0,0E0,0E0,0E0,0E0,0E0,0E0,0E0,0E0],"parents":[2147483647,0,0,1,1,2,2,3,3,4,4,5,5,6,6,7,7,8,8,9,9,10,10,11,11,12,12,14,14,15,15,16,16,17,17,18,18,19,19,20,20,22,22,23,23,24,24,26,26,28,28],"right_children":[2,4,6,8,10,12,14,16,18,20,22,24,26,-1,28,30,32,34,36,38,40,-1,42,44,46,-1,48,-1,50,-1,-1,-1,-1,-1,-1,-1,-1,-1,-1,-1,-1,-1,-1,-1,-1,-1,-1,-1,-1,-1,-1],"split_conditions":[4.1891605E-1,2.6718152E-1,6.8270314E-1,1.8727513E-1,3.281637E-1,6.125525E-1,4.6839127E-1,2.0119111E-1,1.3972236E-1,2.750905E-1,1.7663984E-1,5.3776336E-1,2.0773034E-1,6.8641873E-3,2.4471846E-1,1.1531871E-1,4.9653268E-1,5.626633E-1,2.9328108E-1,4.597715E-2,2.8596762E-1,1.6618547E-3,4.62546E-2,3.8988727E-1,1.9600226E-1,6.151272E-3,3.89455E-1,3.1246992E-3,7.1654356E-1,-1.6699063E-3,-2.3359729E-3,-8.3231274E-4,-1.6227441E-3,-5.900992E-4,4.456304E-5,-3.2642335E-4,-1.249681E-3,2.9349254E-4,-3.5731585E-4,-9.317379E-4,-3.2964497E-4,-1.8528757E-4,4.7059482E-4,1.4973938E-3,6.30579E-4,2.3019789E-3,1.1091231E-3,2.705327E-3,3.7439243E-4,4.6714E-3,1.7453767E-3],"split_indices":[652,652,652,652,650,62,19,78,3,141,271,442,86,0,273,611,327,73,316,384,97,0,213,497,92,0,6,0,0,0,0,0,0,0,0,0,0,0,0,0,0,0,0,0,0,0,0,0,0,0,0],"split_type":[0,0,0,0,0,0,0,0,0,0,0,0,0,0,0,0,0,0,0,0,0,0,0,0,0,0,0,0,0,0,0,0,0,0,0,0,0,0,0,0,0,0,0,0,0,0,0,0,0,0,0],"sum_hessian":[5.36E2,3.68E2,1.68E2,2.53E2,1.15E2,1.06E2,6.2E1,1.65E2,8.8E1,3.7E1,7.8E1,9.7E1,9E0,8E0,5.4E1,1.36E2,2.9E1,9E0,7.9E1,2.6E1,1.1E1,3E0,7.5E1,5.4E1,4.3E1,2E0,7E0,2.1E1,3.3E1,3.1E1,1.05E2,6E0,2.3E1,6E0,3E0,4E0,7.5E1,7E0,1.9E1,9E0,2E0,2.5E1,5E1,2.1E1,3.3E1,3E1,1.3E1,6E0,1E0,3E1,3E0],"tree_param":{"num_deleted":"0","num_feature":"660","num_nodes":"51","size_leaf_vector":"1"}},{"base_weights":[9.656442E-4,-2.2457924E-2,5.2103695E-2,-3.7128817E-2,-4.2933426E-3,3.194596E-2,8.551281E-2,-4.2886715E-2,-2.9795341E-2,-1.6487774E-2,4.125998E-3,5.5297753E-3,2.939458E-2,1.2000395E-1,7.223424E-2,-1.4267019E-3,-4.4483185E-2,-3.13509E-2,-1.668276E-2,-1.4444342E-2,-1.3447625E-3,1.2593714E-3,1.4713498E-2,2.219249E-2,4.587078E-2,2.0457676E-3,6.4189895E-3,6.464594E-2,5.104753E-3,-1.9260895E-3,-2.477746E-3,-1.6652286E-3,-1.0605231E-3,-2.3691058E-4,-8.6689414E-4,-7.635878E-4,3.7527458E-5,1.0525157E-3,-3.2782085E-5,